230 300
cau -0.2188101 -0.1891864 -0.008314558 0.08811174 -0.11738338 0.0555027 0.10758665 -0.12024631 -0.17546134 -0.2677058 0.18035041 0.05057426 0.024964647 -0.38488156 -0.1068868 0.06768096 -0.05793105 -0.18244146 0.04315221 0.022789117 -0.025815584 0.15107335 -0.09631183 0.12716444 0.043501493 0.18869345 0.06669573 -0.04082627 0.21640983 0.032017443 -0.1773112 -0.024777466 -0.13329418 -0.12280499 0.08764375 -0.061279055 -0.03830045 0.2577637 0.1322315 -0.047369063 0.039659712 0.031278282 0.18743825 -0.17245775 -0.061507527 0.07294483 -0.0058492864 -0.07430767 0.059692882 0.21215205 -0.28302822 0.097745545 0.027169852 -0.1658458 -0.08434395 -0.051671118 -0.105274774 -0.019130168 -0.094424605 -0.08422425 0.04631314 -0.011295315 -0.25901133 0.28494865 0.32331598 -0.26879653 -0.035873678 -0.2366836 -0.22676797 -0.2900044 -0.105284445 0.12040205 0.13199066 -0.095277004 -0.2864629 -0.14683129 -0.028323539 0.23954631 -0.26753348 -0.17766601 -0.056845672 0.060538687 -0.06411097 0.11451069 -0.122576945 0.09755809 -0.36444128 0.08581839 -0.027839044 -0.14043576 0.43668547 -0.36453626 0.2031513 0.015032503 -0.13126159 -0.004130298 0.10474654 -0.08469323 0.02638072 0.24026416 0.020147739 -0.039170884 -0.02226692 0.19315337 0.11269894 -0.06374016 0.19626002 0.1350716 0.3476093 0.33313283 -0.2989731 0.15422373 -0.10724669 0.09566441 0.13834187 0.074391626 0.06274976 -0.107305095 -0.070154324 -0.1282951 0.022391357 0.15198174 0.13648719 0.46297318 -0.026114738 -0.14164431 0.09616077 0.037449718 0.038607728 0.176742 0.062311567 0.057939544 0.0056169326 -0.10211032 0.07289623 -0.012297753 0.024930058 0.11091089 -0.034094054 0.009252007 -0.19935799 -0.18345627 -0.15766792 -0.25563544 -0.06939644 0.03375901 -0.0068937284 0.37290284 -0.28036925 -0.10042066 0.23560734 -0.100717336 0.20247525 0.048958283 0.020649133 0.048080955 -0.17136906 0.079472475 0.25698587 -0.051972173 -0.191705 -0.015103253 -0.34031034 0.09814521 0.2243642 0.23701878 0.05564015 0.0709368 0.015367286 0.115794376 -0.15935653 -0.15170279 0.03321543 0.08867107 -0.020792687 0.2764704 0.055354472 0.069758266 0.023036001 -0.049940176 -0.047584295 0.036752228 0.32383418 -0.056040924 -0.29829308 -0.16910115 -0.12892422 0.17019935 0.08466988 -0.07817715 -0.050294146 0.29179052 -0.08883589 0.00037863405 0.06052522 0.13597755 -0.0344821 -0.15858538 -0.061682537 -0.18681002 0.11083699 -0.10461508 -0.0061459355 -0.090067424 -0.18729945 0.09237197 -0.035005778 -0.07363884 0.20723566 0.14163548 -0.05361684 -0.18032621 0.007902541 0.040954467 0.14263654 -0.18938535 -0.30617765 -0.10734628 -0.2654315 -0.043546908 0.03570958 -0.011467923 -0.017785843 -0.12639357 0.038129114 -0.04264059 -0.2567886 0.054937966 0.05444948 -0.28060657 0.05404113 0.095083766 -0.023030747 0.035954278 -0.06347754 0.060651693 0.23461159 -0.119230606 -0.040546805 0.03794484 -0.08017932 0.0389065 -2.9663099e-05 -0.13947244 -0.0025081586 -0.038138926 -0.32762763 0.23161083 0.10224241 -0.02334634 -0.06960112 0.018529238 0.18064715 0.16601922 0.079468235 0.36723617 -0.21902528 0.022899192 -0.25598368 -0.045720402 -0.12011744 0.027648583 -0.055066388 -0.29964694 -0.16622543 -0.11128378 -0.023679903 -0.14574651 -0.29343656 0.24025905 -0.23485304 -0.11513575 -0.18120643 -0.20985946 0.32362685 0.15422961 0.14373477 0.09468183 0.41023988 -0.064100735 0.010418256 0.11909318 -0.16650572 0.19106223 -0.1202859 0.07302762 -0.06557034 -0.27701423 0.07867413 0.09923253 -0.12732115 0.021891035 -0.0546808 -0.20357805 -0.04425016 0.010074564 0.038398176 0.2172644 0.26991072 -0.4286094
toi -0.21300486 -0.18297186 -0.010628428 0.08750844 -0.11465904 0.053590916 0.10643785 -0.11612003 -0.16970024 -0.26081163 0.17382337 0.05013158 0.023420699 -0.37284687 -0.10243694 0.06660302 -0.057367757 -0.17692795 0.041344665 0.020596338 -0.025749756 0.1436025 -0.09483814 0.12413076 0.04055797 0.1817709 0.06566573 -0.03984226 0.20789911 0.032652423 -0.17256133 -0.025597066 -0.13077256 -0.11951435 0.082548216 -0.05974552 -0.038592435 0.24773717 0.12772892 -0.045421787 0.035131015 0.030574571 0.18090111 -0.16711466 -0.059007127 0.07206909 -0.003913455 -0.07316274 0.0583512 0.20499936 -0.2716966 0.097606294 0.024690608 -0.16193824 -0.082664184 -0.047600087 -0.10294285 -0.017923148 -0.09371854 -0.08104547 0.0465498 -0.011677394 -0.24882933 0.27591833 0.3119106 -0.2599509 -0.034105383 -0.2296721 -0.2190501 -0.27946976 -0.100654 0.1157629 0.1266967 -0.09507115 -0.27635303 -0.14148447 -0.030226773 0.2306783 -0.25785735 -0.17033683 -0.05527185 0.060787823 -0.06348491 0.110742144 -0.12003415 0.09399902 -0.35104167 0.081408575 -0.029421242 -0.13522862 0.4213681 -0.35307333 0.19674085 0.014363316 -0.1275593 -0.0034155706 0.09967077 -0.08216622 0.024937496 0.23303835 0.017187117 -0.03673751 -0.021392565 0.18623474 0.10864898 -0.06277513 0.18869156 0.13243024 0.33608362 0.3235342 -0.2887747 0.15063107 -0.103262104 0.09361602 0.13360293 0.070184 0.05871543 -0.10339166 -0.066120245 -0.124461554 0.022861905 0.14713328 0.13180031 0.4469624 -0.022521036 -0.13920768 0.092278935 0.03507621 0.035575185 0.17068544 0.059688646 0.05450046 0.0062197316 -0.09778017 0.07228058 -0.012129192 0.023134567 0.1060286 -0.03261067 0.009513057 -0.19206223 -0.17849432 -0.15272613 -0.24556848 -0.06770557 0.03307943 -0.009095742 0.36011463 -0.27093956 -0.096006766 0.22745591 -0.097105384 0.19654736 0.048044614 0.020384552 0.046850014 -0.1675665 0.0740686 0.24830635 -0.050608125 -0.1860242 -0.013184506 -0.33106372 0.09496044 0.21781279 0.22670908 0.055361506 0.06801003 0.013768703 0.11008068 -0.15352137 -0.14620838 0.033416748 0.08690946 -0.020661158 0.26530868 0.053272646 0.06478737 0.019592445 -0.047243766 -0.046009794 0.03765378 0.31309912 -0.05117724 -0.29008207 -0.16322203 -0.12222373 0.16594964 0.08466512 -0.07669228 -0.046330437 0.28312442 -0.08811929 0.0012051866 0.05959206 0.13161504 -0.033852614 -0.15101355 -0.05707011 -0.18145618 0.10591208 -0.1012027 -0.0072615338 -0.085771866 -0.1803728 0.09036363 -0.032878276 -0.0704242 0.20071514 0.13618821 -0.050534066 -0.17232375 0.0075221886 0.03930694 0.1393062 -0.18527351 -0.2936178 -0.101259254 -0.25719073 -0.042296093 0.032886013 -0.009821491 -0.014585421 -0.12160473 0.036364358 -0.043170407 -0.24765219 0.05438488 0.050837506 -0.2725886 0.05092522 0.09241883 -0.022220049 0.035144843 -0.062557705 0.060675 0.22833334 -0.11646037 -0.036592845 0.034633994 -0.07943264 0.038091507 0.0030080727 -0.13563997 -0.0021438377 -0.03863157 -0.31576213 0.22262616 0.10062981 -0.024720011 -0.06616111 0.017055804 0.17360955 0.16034335 0.074795954 0.35205054 -0.20966583 0.023267372 -0.24742231 -0.044952966 -0.116972975 0.028181052 -0.05541701 -0.28830743 -0.15822406 -0.10789405 -0.021978615 -0.13947293 -0.28430942 0.23169443 -0.22532433 -0.10865546 -0.17370553 -0.20334525 0.31224927 0.15171444 0.13879131 0.08990481 0.39791954 -0.061694268 0.009784024 0.11526398 -0.15932818 0.18352234 -0.11435599 0.071159616 -0.06202412 -0.26662338 0.07614086 0.09532191 -0.12325726 0.02227952 -0.05350009 -0.19845466 -0.042421926 0.008066936 0.037544392 0.20723507 0.26042813 -0.41371974
khong -0.20104751 -0.17497008 -0.0075311065 0.08327238 -0.10871639 0.050845996 0.10122547 -0.110331744 -0.16050668 -0.24664374 0.16685994 0.044674113 0.021622937 -0.35109872 -0.095656164 0.06436873 -0.05363524 -0.16740824 0.03944947 0.020748712 -0.02531314 0.13722274 -0.088732034 0.11630621 0.037967313 0.17367189 0.060119275 -0.037607018 0.19753158 0.0312009 -0.16281426 -0.022569988 -0.12314945 -0.11148043 0.07846972 -0.058412276 -0.034971207 0.2344227 0.12164537 -0.04252813 0.034426704 0.027710736 0.1723357 -0.15827556 -0.05749546 0.0666571 -0.00539484 -0.070372365 0.055687882 0.19370054 -0.25706285 0.09180384 0.024855627 -0.1523501 -0.07639927 -0.044862512 -0.09816872 -0.017265027 -0.08931437 -0.07579213 0.044560798 -0.008848602 -0.23777163 0.26243034 0.2958044 -0.24800347 -0.031770173 -0.2193887 -0.20723076 -0.26471075 -0.09486463 0.108348444 0.12119008 -0.0901018 -0.26460782 -0.13303544 -0.026564684 0.22162712 -0.24484919 -0.16190843 -0.051511887 0.058233827 -0.05981235 0.10586065 -0.112755306 0.08929923 -0.33415234 0.07626276 -0.025490208 -0.12956226 0.40068063 -0.3345519 0.18721864 0.015621793 -0.121959575 -0.0019089641 0.097129375 -0.079249114 0.024818372 0.222839 0.016527124 -0.03612117 -0.020775031 0.17635064 0.102020055 -0.057988007 0.18053168 0.124597795 0.31733048 0.30734545 -0.2737081 0.14064531 -0.09857311 0.08762521 0.12599641 0.065962665 0.05712091 -0.09561392 -0.06563066 -0.11757094 0.020206895 0.1378826 0.12461532 0.4241898 -0.021413857 -0.12952773 0.087372154 0.035866983 0.035390794 0.16132902 0.059071682 0.053716823 0.0066848136 -0.09293839 0.06649135 -0.01147693 0.021865685 0.101398155 -0.030249048 0.008636332 -0.18148483 -0.16850917 -0.14451261 -0.23442239 -0.06460216 0.02837389 -0.0073186173 0.34255692 -0.25813946 -0.09036722 0.21641274 -0.092505 0.18504415 0.047053397 0.019066922 0.043572903 -0.15731692 0.072935924 0.23320122 -0.046870932 -0.17699532 -0.011761674 -0.31197625 0.089097574 0.20658742 0.21473171 0.052404225 0.06617748 0.0130034005 0.105365045 -0.14501974 -0.13761967 0.02934326 0.082651064 -0.018370213 0.25121403 0.05082527 0.062280405 0.018595437 -0.04790787 -0.043355975 0.035849415 0.2947656 -0.051298082 -0.2746888 -0.15734713 -0.117908865 0.15787663 0.07936771 -0.07253289 -0.04594226 0.27006945 -0.08274694 0.0024578616 0.055958115 0.12408871 -0.03159594 -0.14354631 -0.056351524 -0.17100835 0.10259787 -0.09431381 -0.0074752215 -0.083007544 -0.16941358 0.08316735 -0.032622572 -0.06865036 0.19202912 0.12824138 -0.048912 -0.16235943 0.0048762145 0.0382149 0.13173652 -0.17583795 -0.28020227 -0.096456476 -0.24385494 -0.04275022 0.03089972 -0.009533831 -0.016885513 -0.116822705 0.033781324 -0.040075503 -0.23405959 0.050504785 0.049845543 -0.2594476 0.05111082 0.08793172 -0.02025954 0.03262349 -0.058270134 0.056226864 0.21685988 -0.111211695 -0.035265137 0.033418663 -0.07393015 0.034420546 0.002991619 -0.127787 -0.0037715102 -0.035514843 -0.30087408 0.21260422 0.093770206 -0.021168796 -0.06275288 0.019119384 0.16388792 0.15354402 0.07203717 0.33671805 -0.19938596 0.019646786 -0.23513931 -0.04254727 -0.10937949 0.02766154 -0.052207254 -0.27413586 -0.15189116 -0.10149021 -0.021437954 -0.13178755 -0.26955873 0.21795836 -0.21385917 -0.103433564 -0.16376913 -0.19009782 0.29507878 0.1421173 0.13257942 0.08663282 0.37538657 -0.058075804 0.0074637947 0.109947294 -0.15334363 0.17383744 -0.110084146 0.065094315 -0.058534924 -0.253586 0.07231247 0.09092506 -0.117739014 0.021190425 -0.05089787 -0.18831788 -0.039489333 0.008046507 0.036029447 0.1976498 0.24672654 -0.39494887
co -0.1875261 -0.16193783 -0.009107728 0.07784396 -0.10217554 0.04743835 0.09295247 -0.10258619 -0.15157664 -0.23049101 0.15355854 0.04210927 0.022448145 -0.33082923 -0.09139995 0.059326384 -0.050474606 -0.1569075 0.038090494 0.01958494 -0.024337701 0.12892283 -0.08411092 0.10802184 0.036200326 0.16126831 0.05597758 -0.035975434 0.18391655 0.027934587 -0.15181918 -0.022184271 -0.11520716 -0.10483044 0.07467394 -0.052281268 -0.033017255 0.22155628 0.1127523 -0.04178563 0.033823226 0.027113773 0.15861322 -0.148828 -0.053182214 0.06494361 -0.0028357555 -0.064460926 0.051847424 0.18002063 -0.2414199 0.0835935 0.020963887 -0.14432153 -0.07151524 -0.044477466 -0.088846356 -0.016246995 -0.08163691 -0.070119634 0.041417487 -0.010170509 -0.22123851 0.24423493 0.27715984 -0.2301374 -0.031763043 -0.205104 -0.19265555 -0.2476166 -0.08764613 0.10304666 0.112909935 -0.08194665 -0.24677032 -0.12701857 -0.025810886 0.2064472 -0.2291807 -0.15060581 -0.04892654 0.05262062 -0.05555784 0.09808757 -0.10570259 0.082851894 -0.31070292 0.07207679 -0.02480807 -0.11965427 0.37349573 -0.31192833 0.17246324 0.012436202 -0.112568624 -0.0048084017 0.09131934 -0.07267644 0.022499703 0.20836885 0.01731036 -0.033203635 -0.018370679 0.1666451 0.09729772 -0.05484108 0.16973953 0.116823874 0.29585913 0.28746542 -0.25688997 0.13292423 -0.092026405 0.08156812 0.11715105 0.063630074 0.054972958 -0.08907387 -0.06156358 -0.1091163 0.018680802 0.13024454 0.1155925 0.39527798 -0.022922218 -0.12118599 0.07993228 0.031810585 0.031790376 0.15217173 0.054722972 0.048460297 0.0058419975 -0.08556394 0.061296593 -0.010521535 0.01944015 0.093634576 -0.02876102 0.009130716 -0.16824833 -0.15781227 -0.1365233 -0.2184346 -0.061828174 0.02679582 -0.0071811997 0.3185203 -0.24256869 -0.08550844 0.20124891 -0.08706934 0.17370811 0.04333874 0.020075884 0.04025552 -0.1467892 0.06796508 0.2209794 -0.045034382 -0.16623904 -0.010868031 -0.2937876 0.08195411 0.19333187 0.20331815 0.04701226 0.06100517 0.012583153 0.09916839 -0.13743544 -0.13067353 0.02807635 0.0778801 -0.019044353 0.2360752 0.046038203 0.0576806 0.017684475 -0.042198796 -0.04261846 0.030798009 0.27694955 -0.045709457 -0.255533 -0.14475594 -0.110033974 0.14826597 0.072445124 -0.06543543 -0.040884875 0.24982545 -0.07642928 0.0016848212 0.05292555 0.114260696 -0.03002131 -0.13501634 -0.050503757 -0.15842661 0.094960384 -0.09080943 -0.0058937087 -0.07818187 -0.15850239 0.08005172 -0.028684271 -0.0628045 0.17824306 0.119075246 -0.04668029 -0.15386955 0.00584609 0.036714874 0.12354166 -0.16433814 -0.26210305 -0.09162622 -0.22689691 -0.03939589 0.029856455 -0.007498956 -0.014463085 -0.109515056 0.03329685 -0.038461972 -0.22010155 0.045616485 0.046276264 -0.23991387 0.046985805 0.08161286 -0.017231317 0.030067442 -0.053504106 0.05392558 0.20067678 -0.10446781 -0.033857845 0.03261006 -0.069614165 0.033390936 0.0022232998 -0.117908776 -0.0043892977 -0.0350999 -0.27863964 0.19956283 0.088151686 -0.02060232 -0.058745313 0.01587179 0.15365045 0.14308356 0.067643166 0.31462222 -0.1863787 0.018752372 -0.22047421 -0.040776934 -0.102818616 0.024058968 -0.04732798 -0.25659615 -0.1432953 -0.0971749 -0.01827637 -0.12471498 -0.2518704 0.20614089 -0.20079532 -0.09850135 -0.1538267 -0.17866954 0.27781963 0.1342967 0.12285795 0.08076091 0.35067496 -0.053611465 0.008635159 0.10030048 -0.1410649 0.16334167 -0.10273177 0.062423963 -0.056739695 -0.23691177 0.06936054 0.08352975 -0.11102482 0.017255854 -0.04526991 -0.17615019 -0.036515847 0.008104911 0.032938484 0.1848143 0.22928026 -0.36839393
the -0.16335794 -0.13988622 -0.0054772613 0.066751264 -0.08903934 0.039831948 0.08102982 -0.088585354 -0.13294172 -0.2019641 0.13446136 0.038145043 0.017570358 -0.2889981 -0.0801416 0.05204108 -0.043136824 -0.1358371 0.03163884 0.0179272 -0.020499408 0.11206335 -0.07188811 0.095542714 0.030735767 0.14197595 0.049134817 -0.03137287 0.16245712 0.024486257 -0.13197404 -0.01860514 -0.09849732 -0.09349467 0.06326536 -0.047623537 -0.029311096 0.19214675 0.09661075 -0.035838317 0.028308725 0.024536245 0.13913807 -0.12948942 -0.047346953 0.056215618 -0.0031165602 -0.054896004 0.04377507 0.15871531 -0.21198188 0.07379296 0.01791574 -0.12631875 -0.061711613 -0.036964163 -0.07725548 -0.014081903 -0.07254064 -0.061829865 0.03730352 -0.008791588 -0.19345008 0.21311194 0.24225369 -0.20170629 -0.02616016 -0.17919399 -0.16876753 -0.21602575 -0.078982964 0.09024099 0.09700547 -0.0711842 -0.21540043 -0.109570034 -0.022810388 0.18087609 -0.19997111 -0.13064352 -0.044396173 0.04484255 -0.047995787 0.08629689 -0.09245352 0.07070328 -0.27148518 0.064655766 -0.020296497 -0.105912074 0.32641134 -0.27204943 0.15083353 0.010741055 -0.09906783 -0.004085041 0.07975494 -0.06382032 0.021155238 0.18118908 0.014862955 -0.030435616 -0.015307106 0.1451316 0.08281478 -0.046705157 0.1479867 0.1031895 0.26076677 0.24973604 -0.22521776 0.11510076 -0.08034747 0.07198575 0.10206151 0.05444015 0.04770212 -0.0787315 -0.051664867 -0.09584393 0.017421067 0.11217772 0.10181996 0.34568632 -0.019039007 -0.10722782 0.07001568 0.028065711 0.026750823 0.13008606 0.048535325 0.042654138 0.0054221423 -0.076140665 0.05593386 -0.00804028 0.019041717 0.081279285 -0.024509445 0.006124781 -0.14690576 -0.13845252 -0.11906549 -0.19227535 -0.053875368 0.024084251 -0.006811156 0.2780164 -0.21204251 -0.07304267 0.17529522 -0.0759801 0.15276231 0.03641495 0.015280647 0.035663653 -0.12893465 0.05683784 0.19181764 -0.038842745 -0.14494342 -0.011955219 -0.25601298 0.07116475 0.16698237 0.17714661 0.04326533 0.05464428 0.010722373 0.086679325 -0.12009836 -0.113603 0.024363227 0.066140175 -0.017148413 0.20726836 0.041818034 0.053037137 0.015530673 -0.036602166 -0.034378033 0.029386695 0.24089211 -0.04126133 -0.22549246 -0.1267176 -0.09461659 0.12872761 0.06329852 -0.05805025 -0.035257373 0.21924442 -0.06841817 0.0005985444 0.044245593 0.10135445 -0.02548287 -0.11710194 -0.046137754 -0.1389865 0.084053315 -0.07820588 -0.0050979406 -0.06746858 -0.13834368 0.06964891 -0.026817724 -0.054496378 0.15485981 0.106226586 -0.039463207 -0.13478695 0.00605373 0.030348472 0.10877441 -0.14247234 -0.22837943 -0.079441555 -0.19786587 -0.03478669 0.027450107 -0.0058701737 -0.010857533 -0.094571605 0.027312597 -0.031925682 -0.19312339 0.03935684 0.0391981 -0.20970081 0.042208772 0.07052988 -0.017352168 0.028803756 -0.048489895 0.04678852 0.17551295 -0.09150756 -0.029470881 0.026958052 -0.061715435 0.030443555 0.0013468233 -0.10234377 -0.0016301725 -0.028990027 -0.24477524 0.17373133 0.07773496 -0.018700639 -0.052115493 0.014002996 0.13414761 0.12379038 0.05904664 0.272283 -0.16182053 0.015721506 -0.19227418 -0.034799032 -0.09088664 0.019634945 -0.043315135 -0.2226271 -0.124381855 -0.08493343 -0.017044429 -0.107982725 -0.22019397 0.17925155 -0.17547591 -0.08557858 -0.13586308 -0.15625323 0.24255963 0.11706756 0.10708179 0.07144879 0.30845383 -0.049000878 0.006000975 0.08765924 -0.12367189 0.14393277 -0.08745363 0.05514786 -0.048629597 -0.20768313 0.05944738 0.073267594 -0.09601759 0.014644692 -0.03969427 -0.15149888 -0.03152348 0.0063831 0.028136497 0.16175453 0.20050189 -0.32054177
gi -0.13439517 -0.11445917 -0.004184116 0.05396543 -0.070943154 0.03340898 0.06816491 -0.07329729 -0.10635067 -0.16335969 0.110306434 0.032090675 0.0149560785 -0.23689201 -0.06595248 0.043006726 -0.03409085 -0.11335557 0.027502755 0.014957714 -0.015356604 0.09074126 -0.060638346 0.07641413 0.024719354 0.11395071 0.042282496 -0.024454715 0.13053972 0.021792004 -0.11021707 -0.016169922 -0.08272012 -0.076280825 0.054098032 -0.0390161 -0.023776446 0.15857337 0.07922475 -0.027321436 0.022567112 0.019486984 0.115485534 -0.10739696 -0.03765207 0.04690291 -0.0024252515 -0.0466434 0.037182946 0.12879004 -0.17413543 0.06053705 0.014711178 -0.10212516 -0.05273289 -0.031911682 -0.06511787 -0.010483132 -0.058045167 -0.05053071 0.030457282 -0.007113589 -0.15887856 0.1747667 0.19876686 -0.1663822 -0.021579837 -0.14686096 -0.13989767 -0.17781316 -0.06345121 0.07380223 0.08121855 -0.060802232 -0.17700268 -0.09046564 -0.017641898 0.14851877 -0.16228206 -0.109126076 -0.034929074 0.038204875 -0.038806293 0.07152464 -0.074542545 0.05926394 -0.22354874 0.052458547 -0.01831552 -0.085778914 0.2653054 -0.22364572 0.12486035 0.008492569 -0.0816663 -0.0023861134 0.06425151 -0.05061516 0.014624867 0.14758387 0.012047869 -0.023739811 -0.012593255 0.11734624 0.06913647 -0.038605645 0.121131 0.08388369 0.21282806 0.2054243 -0.18350038 0.09559001 -0.06423779 0.05969515 0.0827979 0.046411365 0.03851623 -0.06544881 -0.041991007 -0.07905774 0.01569256 0.09235316 0.08472203 0.28381208 -0.015087749 -0.08770183 0.057807025 0.021745328 0.021573482 0.107098475 0.039360397 0.03696883 0.0038024776 -0.06240727 0.04591234 -0.005921789 0.013548372 0.06784971 -0.01952493 0.006364074 -0.12125028 -0.11075213 -0.0956642 -0.15532197 -0.04317338 0.01871835 -0.004669275 0.22935028 -0.17254071 -0.060647245 0.1426329 -0.061274797 0.12515569 0.031647004 0.012165631 0.028180202 -0.1060568 0.04881581 0.15702489 -0.03140839 -0.11914659 -0.009045122 -0.20754427 0.060952358 0.13625504 0.14598008 0.034664083 0.043022513 0.010506641 0.071815856 -0.09733491 -0.092200145 0.020324562 0.056134544 -0.013043897 0.16698657 0.033311527 0.042077802 0.014151729 -0.03203745 -0.029836414 0.021652063 0.19939227 -0.033370152 -0.18220882 -0.10574389 -0.07746783 0.10596891 0.053930584 -0.04793888 -0.029175246 0.17857704 -0.05573352 0.00062549557 0.0358002 0.08168655 -0.022924881 -0.09612271 -0.036680784 -0.115607835 0.06694334 -0.065086216 -0.0023348508 -0.054361828 -0.11270438 0.05746345 -0.022039387 -0.04474705 0.12660782 0.084492035 -0.032899812 -0.1112752 0.0036381974 0.025364723 0.08876129 -0.11761669 -0.18754266 -0.066999845 -0.16126722 -0.028827704 0.022096042 -0.004473663 -0.011270056 -0.075782545 0.021849006 -0.027380504 -0.15815543 0.034802996 0.033896115 -0.17278418 0.03488024 0.056916054 -0.012625177 0.021868866 -0.04009636 0.037965123 0.14283338 -0.07341357 -0.0236451 0.023152417 -0.050066955 0.02364674 -0.0006683013 -0.08576901 -0.0032151518 -0.025157478 -0.1994679 0.1432269 0.061877694 -0.014910077 -0.040411174 0.012593188 0.111420356 0.10090514 0.048398234 0.22372527 -0.13332364 0.01340163 -0.15673427 -0.027123453 -0.07503039 0.016449913 -0.03541205 -0.18280037 -0.10204838 -0.069096476 -0.012736829 -0.08966742 -0.1795359 0.14694546 -0.14415337 -0.06946552 -0.10927761 -0.12753491 0.19820243 0.09522335 0.0896299 0.058348104 0.25246486 -0.04056346 0.0038021756 0.0733367 -0.10289755 0.11766668 -0.073612064 0.043285236 -0.039437782 -0.17126448 0.04939894 0.059498537 -0.076989524 0.011972784 -0.03340808 -0.12657507 -0.026239501 0.0072312793 0.0230601 0.1323223 0.16408576 -0.26427028
la -0.1490188 -0.12825063 -0.0062925583 0.06037433 -0.07782011 0.03653415 0.0742998 -0.082073994 -0.117017485 -0.18188956 0.121468686 0.032471225 0.017366199 -0.259375 -0.070180945 0.04510215 -0.03738276 -0.12362338 0.028585944 0.014817721 -0.016840342 0.102107085 -0.066493854 0.08490581 0.027791737 0.12682113 0.04503901 -0.025926428 0.14570792 0.022555426 -0.1193235 -0.018601771 -0.09077142 -0.081947915 0.056741256 -0.04321539 -0.024450975 0.17191459 0.08703045 -0.029767735 0.026375996 0.021193797 0.12663029 -0.11743355 -0.042423368 0.048521537 -0.0041188444 -0.049962677 0.038407367 0.14165264 -0.18907723 0.0652149 0.01873689 -0.11086259 -0.055281505 -0.033391085 -0.07064003 -0.013305116 -0.06539441 -0.054926865 0.033648334 -0.0075561865 -0.174171 0.19090469 0.21605662 -0.1819637 -0.023611601 -0.15987924 -0.1520826 -0.19397944 -0.068057805 0.08008098 0.08752125 -0.06416939 -0.19377987 -0.09948058 -0.020485787 0.16008049 -0.17998816 -0.11934085 -0.039476544 0.041514315 -0.044321273 0.077305354 -0.08223381 0.0633738 -0.2444159 0.058058448 -0.021150753 -0.09425576 0.29358068 -0.24558012 0.13618408 0.010793768 -0.08738293 -0.0027306464 0.069015376 -0.056777984 0.017439965 0.16329904 0.013544172 -0.028177418 -0.012920717 0.12949665 0.07398459 -0.044047732 0.13163455 0.09024041 0.23257922 0.2244584 -0.20106411 0.10216689 -0.07149538 0.06406054 0.09262957 0.04794466 0.04324248 -0.07125737 -0.04590445 -0.08769835 0.016588219 0.10066232 0.093046784 0.30998677 -0.016499266 -0.09552213 0.06309417 0.024168951 0.024564944 0.11763616 0.041577373 0.03915581 0.0040477584 -0.067396976 0.048356555 -0.0074123354 0.014890752 0.07449273 -0.021635009 0.007614662 -0.13280928 -0.12197608 -0.106107056 -0.17206681 -0.04873711 0.02118425 -0.003984042 0.24885027 -0.18994932 -0.06771275 0.15816686 -0.06805828 0.13525964 0.03534241 0.014943396 0.032461602 -0.116017945 0.052644383 0.17297821 -0.033914097 -0.12784405 -0.009171088 -0.22778153 0.06391796 0.1509256 0.15681303 0.0375946 0.0485846 0.008725521 0.07738567 -0.10681709 -0.1009562 0.0233869 0.058736175 -0.012923839 0.1849177 0.03476471 0.044620406 0.01437231 -0.03402978 -0.03347911 0.025504846 0.21678753 -0.037020467 -0.2023587 -0.112508945 -0.08472039 0.11488176 0.057534594 -0.050751302 -0.032813635 0.19794896 -0.05885937 0.0025841477 0.040994745 0.092135705 -0.023208572 -0.10566971 -0.04104699 -0.1260697 0.07378201 -0.069180615 -0.0057598106 -0.06180774 -0.12417727 0.060555827 -0.021339985 -0.051100172 0.13863742 0.09255585 -0.03416257 -0.11913322 0.002725929 0.02619623 0.09701223 -0.12852831 -0.2043179 -0.0707527 -0.1773728 -0.02863803 0.02351592 -0.005346741 -0.010337307 -0.085982405 0.025425784 -0.030837638 -0.17348942 0.038216103 0.035003815 -0.18773459 0.03515464 0.06302054 -0.014191301 0.024973959 -0.0435071 0.042076565 0.15941755 -0.08066905 -0.025157992 0.02387013 -0.05384697 0.025757834 5.4150565e-05 -0.092043124 -0.0016622207 -0.02579234 -0.22045448 0.1544381 0.06840194 -0.015404937 -0.04725652 0.012212065 0.11978505 0.111113645 0.05243906 0.24710329 -0.1470109 0.015469069 -0.17005228 -0.030718528 -0.08008103 0.020562777 -0.03765137 -0.2013736 -0.10998194 -0.075933665 -0.013548288 -0.09639039 -0.19584095 0.16199036 -0.1566218 -0.07762154 -0.12177018 -0.14069325 0.2155559 0.10341079 0.09513796 0.06283297 0.27456093 -0.042679902 0.00439689 0.07908782 -0.11257596 0.12682725 -0.079549894 0.047185585 -0.043055292 -0.1849077 0.051483136 0.06477679 -0.0850446 0.012945521 -0.035381246 -0.13868251 -0.0297603 0.0060270983 0.02577444 0.14411065 0.18154082 -0.28812426
duoc -0.13856056 -0.1168263 -0.006202054 0.054493487 -0.0747186 0.035890736 0.066940136 -0.07627003 -0.10894092 -0.16678031 0.11420136 0.03184006 0.015635738 -0.23936023 -0.06657317 0.044087462 -0.03729622 -0.11535335 0.026001355 0.015433089 -0.0158682 0.09250477 -0.060370874 0.078890875 0.02727403 0.11887018 0.040326335 -0.024793725 0.13281165 0.022029882 -0.11122643 -0.017821675 -0.08265148 -0.07557767 0.053389378 -0.03890606 -0.024971373 0.16000038 0.081948824 -0.027821377 0.02524152 0.021044087 0.11690111 -0.10895355 -0.038397245 0.044785094 -0.0037784511 -0.046845157 0.038099382 0.13118741 -0.17661466 0.06164182 0.017552285 -0.103145055 -0.05382675 -0.030127889 -0.065594785 -0.012978063 -0.05879884 -0.052336868 0.031290486 -0.0070070503 -0.16244136 0.17641033 0.20268925 -0.16846566 -0.021258408 -0.14774786 -0.13936128 -0.18126582 -0.063179374 0.07522908 0.08254233 -0.05874893 -0.17886701 -0.091996595 -0.019280141 0.15057884 -0.16728954 -0.109704666 -0.037172377 0.038853865 -0.03964571 0.070540726 -0.07664478 0.0607752 -0.22762074 0.05356272 -0.018773077 -0.08675669 0.27156213 -0.22539695 0.12693632 0.01149493 -0.080479555 -0.002865104 0.066531725 -0.051105812 0.01763342 0.15104483 0.012734557 -0.023728136 -0.013187667 0.119865805 0.06922207 -0.04041728 0.1226891 0.08334305 0.21627937 0.20701298 -0.1881381 0.09618498 -0.06624581 0.059214 0.08624817 0.046078023 0.037836708 -0.066609316 -0.043419905 -0.08092478 0.016068572 0.092700966 0.08595813 0.28808552 -0.014394628 -0.08970941 0.058857985 0.022837684 0.022331277 0.10846143 0.040842537 0.036490176 0.004210082 -0.0632663 0.04579825 -0.0058931205 0.015779965 0.0691037 -0.021028139 0.004195782 -0.123905614 -0.11538357 -0.09937149 -0.15730542 -0.044196777 0.019415103 -0.004796222 0.23226121 -0.17418797 -0.0628098 0.14525741 -0.06265944 0.12738359 0.03129895 0.0144222 0.02943739 -0.107574016 0.050210383 0.16104698 -0.032909084 -0.11902604 -0.009806048 -0.21337241 0.059189502 0.14001204 0.14841127 0.034143575 0.044407945 0.009200558 0.07240886 -0.09893298 -0.093420364 0.022378078 0.05428189 -0.011902806 0.17034996 0.0334733 0.04314447 0.0140779205 -0.032623336 -0.0301395 0.024849962 0.19983223 -0.034522016 -0.1859235 -0.10470512 -0.079596356 0.106970854 0.05382991 -0.048160333 -0.031613052 0.1825397 -0.05661286 0.00087410706 0.038383033 0.08376497 -0.02148704 -0.09722027 -0.036210068 -0.11683698 0.06843392 -0.064499535 -0.005369487 -0.055480007 -0.11457517 0.056312244 -0.020933626 -0.046531897 0.1306211 0.08728306 -0.033183303 -0.11286724 0.0048051723 0.026264222 0.087660894 -0.11762169 -0.18815872 -0.06477868 -0.1666989 -0.02659089 0.022316929 -0.007084457 -0.011310901 -0.078194454 0.024570111 -0.027671354 -0.16055714 0.035018492 0.031602234 -0.17673786 0.032458045 0.059690133 -0.013642708 0.024335295 -0.040949322 0.038791686 0.14770614 -0.0761237 -0.02438286 0.022370238 -0.048813436 0.023646524 0.0020122638 -0.08510031 -0.003049997 -0.02368566 -0.20231302 0.14539376 0.0628604 -0.015008532 -0.042615213 0.012645262 0.11308508 0.10254719 0.050885674 0.22763002 -0.13638535 0.013420729 -0.1589737 -0.029371984 -0.07535807 0.017890256 -0.035631567 -0.18656324 -0.10259251 -0.06880524 -0.013658936 -0.089399725 -0.18251796 0.14837757 -0.14466703 -0.07260026 -0.11197979 -0.13174176 0.20163622 0.0960632 0.090239234 0.056607656 0.2568255 -0.04133762 0.007122634 0.07381349 -0.102214426 0.11893952 -0.07257348 0.044090245 -0.03998848 -0.17327268 0.048936028 0.061274543 -0.078821585 0.014360012 -0.032917388 -0.12648092 -0.02867143 0.0061477274 0.02589744 0.13607775 0.16596676 -0.26887757
di -0.14196493 -0.12279088 -0.006559127 0.05674366 -0.07702402 0.035310667 0.071270995 -0.07656847 -0.11374062 -0.17379788 0.117197596 0.03186289 0.01495514 -0.24679156 -0.06768571 0.04443063 -0.03780525 -0.11685662 0.027071355 0.014720947 -0.01865106 0.094889835 -0.06201809 0.08246312 0.026257327 0.12090431 0.042294018 -0.026109654 0.13974907 0.020288367 -0.11583772 -0.018182978 -0.0868475 -0.079195686 0.05675618 -0.039748404 -0.025822174 0.16589619 0.08472828 -0.029943436 0.024874968 0.020007472 0.12000742 -0.112653546 -0.039990075 0.049256608 -0.0028067296 -0.04805833 0.03699757 0.13459107 -0.18290342 0.062382605 0.0163141 -0.105684295 -0.054588083 -0.032357078 -0.066098034 -0.013327989 -0.06326175 -0.051798698 0.03029038 -0.007502916 -0.16664885 0.18259938 0.20871381 -0.17425181 -0.023872808 -0.15183978 -0.1468082 -0.1872641 -0.06605547 0.07558998 0.08539188 -0.060837943 -0.1839188 -0.09401479 -0.017643142 0.1537157 -0.17082204 -0.11372241 -0.038189553 0.038830034 -0.04239514 0.07421632 -0.080315806 0.063018434 -0.23266369 0.053780682 -0.017923221 -0.09141973 0.2809132 -0.23515403 0.13032375 0.011445524 -0.08593053 -0.003986357 0.067077644 -0.05275595 0.016513845 0.15544628 0.0105201695 -0.025908682 -0.012699016 0.124138094 0.072796896 -0.04131035 0.12679355 0.08817483 0.22318664 0.2158802 -0.1939334 0.098485135 -0.06764224 0.061461043 0.087464124 0.045723695 0.03984887 -0.06682382 -0.04356876 -0.08423573 0.015741942 0.09742928 0.08676478 0.29773086 -0.016479079 -0.09005774 0.060808454 0.025607936 0.023460103 0.114411324 0.04168433 0.037583128 0.0021714002 -0.06353591 0.048614234 -0.0061360323 0.015798004 0.070464656 -0.02275846 0.0070989216 -0.12736063 -0.11777592 -0.10191339 -0.16440524 -0.046593226 0.022338007 -0.0038157944 0.23780346 -0.18196376 -0.06471456 0.15046537 -0.06327592 0.12918898 0.032438584 0.015274044 0.03043858 -0.11078259 0.051302698 0.16522352 -0.034682695 -0.12396409 -0.008769257 -0.22017774 0.062433954 0.14372383 0.15251713 0.036455855 0.045938738 0.008032247 0.0727837 -0.101193264 -0.097930886 0.020247707 0.058231384 -0.012949229 0.1769982 0.0348844 0.04322412 0.013532255 -0.031468213 -0.030462632 0.02500306 0.20868257 -0.03509956 -0.19228369 -0.11052777 -0.081488974 0.11000557 0.05622663 -0.0492589 -0.03234319 0.18798275 -0.05877922 0.0026698571 0.037047897 0.087287806 -0.02313108 -0.101305 -0.038807128 -0.11814152 0.069860235 -0.067332216 -0.005247526 -0.058796894 -0.118904844 0.06070137 -0.02121972 -0.047489196 0.134525 0.09075724 -0.032375004 -0.11644624 0.0025754333 0.026519133 0.090830564 -0.123053305 -0.19593753 -0.069614545 -0.1691276 -0.03037462 0.021276398 -0.007054059 -0.010835534 -0.08280456 0.024269218 -0.028477475 -0.1638625 0.03404647 0.03282014 -0.1809686 0.035753768 0.059328414 -0.012295294 0.02331478 -0.03895224 0.040958557 0.15071872 -0.07772457 -0.02507057 0.025114903 -0.050833877 0.02447686 0.0014691635 -0.090721786 -0.0019976986 -0.026619565 -0.21053873 0.14722112 0.06592869 -0.014029792 -0.043067172 0.013390924 0.11647917 0.10554435 0.05146459 0.23597968 -0.13963258 0.014874003 -0.16592804 -0.03126182 -0.07596772 0.016916363 -0.036979377 -0.19008836 -0.10645347 -0.07146061 -0.013338752 -0.09137335 -0.1873011 0.15464388 -0.14928128 -0.07225337 -0.116389334 -0.13428451 0.20737551 0.10146188 0.093095884 0.05974339 0.26268855 -0.04209608 0.0056991307 0.07754581 -0.10568046 0.123941086 -0.077608556 0.04514177 -0.043263223 -0.1779873 0.05093693 0.062116932 -0.08090783 0.0144274 -0.035874188 -0.13135523 -0.026505489 0.0057979063 0.026637198 0.13904938 0.17405188 -0.2754506
roi -0.16542587 -0.14054205 -0.008153599 0.06753095 -0.08803454 0.039302964 0.08175506 -0.08780329 -0.13030793 -0.20126434 0.1334105 0.03798529 0.018604133 -0.28606313 -0.07959157 0.052358337 -0.044080388 -0.13674213 0.03341972 0.015076605 -0.018850148 0.11275542 -0.07306765 0.0954661 0.031687178 0.14179428 0.05062475 -0.029264173 0.1617637 0.026323022 -0.13129842 -0.02085217 -0.09961967 -0.09170512 0.063254274 -0.046307754 -0.030228792 0.19147302 0.096156634 -0.03490268 0.027274324 0.022669457 0.1400569 -0.12800604 -0.04571109 0.056139283 -0.002874336 -0.054579478 0.04597206 0.15813147 -0.2110986 0.072057754 0.02032082 -0.12471036 -0.064266264 -0.03584386 -0.07852065 -0.0127462335 -0.07020012 -0.060688645 0.03439128 -0.009097936 -0.1934715 0.21274164 0.23833136 -0.1990519 -0.026574569 -0.1761047 -0.16737762 -0.21563892 -0.075813994 0.088334315 0.098038584 -0.073024146 -0.2139729 -0.11005677 -0.023437083 0.17918819 -0.197059 -0.13167393 -0.042633947 0.046828076 -0.048947398 0.0838848 -0.092681475 0.07128488 -0.26968515 0.0634209 -0.021080658 -0.106397286 0.3226749 -0.27125695 0.14943056 0.011633696 -0.098296136 -0.0028165095 0.07841985 -0.06387537 0.021197258 0.1812982 0.014175214 -0.031126838 -0.015547514 0.14503905 0.083950795 -0.04729723 0.14701518 0.10277702 0.2566135 0.24794887 -0.22243376 0.11383386 -0.07820716 0.07221046 0.1013434 0.055342622 0.045414098 -0.07746578 -0.052164026 -0.09694462 0.018613346 0.11343475 0.10093367 0.34372678 -0.019264463 -0.10595006 0.07030929 0.027812691 0.026942972 0.1324999 0.045268577 0.042082626 0.0028243551 -0.07403488 0.053749688 -0.009647102 0.01732381 0.08266143 -0.026781345 0.008329334 -0.14739606 -0.13647816 -0.11795252 -0.19123717 -0.052984353 0.025102854 -0.0046335524 0.27764332 -0.21009535 -0.07212832 0.17547715 -0.07495364 0.15044808 0.03816381 0.015569568 0.035727043 -0.1289317 0.059582785 0.1917089 -0.040029984 -0.14346959 -0.011174029 -0.25481114 0.07099432 0.16691726 0.1765561 0.040542483 0.053932525 0.010375453 0.0847671 -0.11839396 -0.11181485 0.02451203 0.06597506 -0.015978474 0.20534743 0.039872423 0.052917 0.016812077 -0.03775962 -0.037415206 0.029658716 0.23880945 -0.040019874 -0.22274911 -0.12691714 -0.09497615 0.12620336 0.0629627 -0.05918579 -0.03605392 0.21971156 -0.06714178 0.00031025396 0.044267848 0.10184146 -0.02528259 -0.116198 -0.045080695 -0.13693123 0.08303093 -0.07917075 -0.0035484692 -0.06539515 -0.13713709 0.06973814 -0.025574494 -0.05328836 0.15538874 0.10405977 -0.040721044 -0.13370526 0.0035648856 0.03171529 0.10702569 -0.14332423 -0.22707103 -0.0777665 -0.19621195 -0.032842275 0.025294118 -0.0073033846 -0.010828813 -0.094934106 0.028642295 -0.032291207 -0.18935858 0.04170934 0.039014064 -0.21093205 0.039780796 0.07043824 -0.014636435 0.028119832 -0.046098486 0.04687328 0.17553696 -0.09100999 -0.027964333 0.026962113 -0.061134532 0.028032474 0.0004218337 -0.103717014 -0.00077207386 -0.028954973 -0.2432212 0.17186995 0.07724288 -0.018740611 -0.049343005 0.014267441 0.13315536 0.12217662 0.05847027 0.27152854 -0.16340162 0.0174938 -0.19046347 -0.036210112 -0.08853671 0.020135764 -0.040064655 -0.22226068 -0.12192133 -0.08384526 -0.017791433 -0.10762945 -0.21814251 0.17765638 -0.17284837 -0.0830889 -0.13382494 -0.15646592 0.24043733 0.11681172 0.106417075 0.0705224 0.30636182 -0.046483275 0.008035812 0.08718443 -0.12429805 0.1419541 -0.08781464 0.05463651 -0.047933552 -0.2052454 0.05868492 0.072881065 -0.09682796 0.016730914 -0.04152425 -0.15176599 -0.03172611 0.007214319 0.029909508 0.16168723 0.19995879 -0.3187857
sao -0.13874596 -0.12154709 -0.0072329165 0.057328865 -0.074062586 0.036091555 0.070224084 -0.0760976 -0.11381301 -0.17269601 0.11384116 0.032878816 0.016601985 -0.24319744 -0.06875218 0.04472529 -0.038757883 -0.115839556 0.026551664 0.014325895 -0.016843297 0.0956043 -0.061671842 0.08254226 0.02825021 0.12049039 0.04308628 -0.02579311 0.13830538 0.022344593 -0.11487559 -0.017671935 -0.08601703 -0.07847184 0.055115376 -0.03899158 -0.023524655 0.16390757 0.083250076 -0.028791929 0.02381058 0.018184608 0.119215794 -0.110206194 -0.039417792 0.046670195 -0.004560624 -0.049099024 0.03780243 0.13466163 -0.18042478 0.06467545 0.017848393 -0.10539509 -0.052429598 -0.03148299 -0.06887368 -0.012314714 -0.061479792 -0.054387894 0.03021811 -0.005649233 -0.1660466 0.18258508 0.20541671 -0.17134897 -0.022544842 -0.15183519 -0.1435774 -0.1830888 -0.06550107 0.07776239 0.085351385 -0.06192805 -0.18395783 -0.09389878 -0.018942164 0.15215479 -0.17053847 -0.111530825 -0.03768532 0.03957382 -0.042060032 0.072218426 -0.07997171 0.06086173 -0.23270872 0.054262966 -0.01866462 -0.09085785 0.2779814 -0.23276427 0.12739149 0.010377893 -0.08556811 -0.003495635 0.066904105 -0.052327894 0.017412025 0.15507095 0.011990105 -0.025095752 -0.012194087 0.12338865 0.07185739 -0.042692956 0.124225564 0.085269384 0.22020069 0.21303971 -0.19093984 0.10003539 -0.06793956 0.06024394 0.085815944 0.048220024 0.039019387 -0.06914586 -0.04604307 -0.082457095 0.015369743 0.095538065 0.08621894 0.29340848 -0.017129423 -0.090265274 0.06188778 0.024781521 0.025225852 0.11345172 0.041140534 0.035918783 0.0039727706 -0.06299654 0.0467075 -0.008387634 0.01383524 0.070724666 -0.020277742 0.005105705 -0.12725373 -0.11705895 -0.09967588 -0.16216928 -0.045862 0.019846097 -0.0062880525 0.2362479 -0.17864813 -0.061545648 0.15087381 -0.0630715 0.12827156 0.032005113 0.014672271 0.030661892 -0.10913323 0.05025803 0.16402358 -0.034354426 -0.12431894 -0.009862933 -0.21801911 0.060924277 0.14173697 0.1496518 0.035030738 0.044072412 0.009534601 0.0727427 -0.10013515 -0.095967524 0.022436924 0.055138763 -0.013077678 0.17511311 0.034226768 0.045012183 0.015257065 -0.030859228 -0.030582534 0.025481896 0.20519671 -0.034938045 -0.19243285 -0.10691699 -0.08069092 0.108192466 0.05519851 -0.049773935 -0.03160135 0.18661697 -0.05570695 0.0020898436 0.03982244 0.085038096 -0.022579128 -0.09924516 -0.03754255 -0.1193981 0.069531016 -0.067468874 -0.0052197957 -0.056215253 -0.119256966 0.059891522 -0.022171248 -0.04791191 0.13438658 0.09058352 -0.032696985 -0.11426067 0.0050912737 0.025816532 0.0913387 -0.12079667 -0.1958388 -0.06953255 -0.16952889 -0.027703704 0.023052383 -0.005099243 -0.009188045 -0.08076269 0.024899093 -0.027383046 -0.16337188 0.03638219 0.031980637 -0.1797986 0.033447858 0.05891036 -0.014766578 0.023772351 -0.041828316 0.040639814 0.14911205 -0.07540696 -0.025690898 0.024951957 -0.050922293 0.026237959 0.0026706057 -0.08791254 -0.0035944222 -0.024093002 -0.20827755 0.14855643 0.06671892 -0.014835653 -0.04411502 0.010853535 0.114791274 0.10418002 0.05094834 0.23418823 -0.14005496 0.016480248 -0.16177624 -0.03057803 -0.07605522 0.017054096 -0.034697868 -0.18881078 -0.10654508 -0.071145564 -0.015374948 -0.09279489 -0.18606627 0.15107615 -0.14869723 -0.07326615 -0.114876576 -0.13219763 0.20608075 0.097730525 0.090655275 0.058018863 0.2632037 -0.04117568 0.00683102 0.07663702 -0.1058936 0.12081156 -0.075745985 0.047416225 -0.041701216 -0.17720225 0.05176257 0.06381681 -0.0807349 0.012294676 -0.03485212 -0.12974139 -0.02807743 0.004692072 0.02586412 0.1387137 0.17148085 -0.2743271
lam -0.1347947 -0.116449505 -0.0046838415 0.053811397 -0.07347932 0.033330154 0.0655812 -0.074544966 -0.10852038 -0.16540994 0.11065903 0.030429946 0.015624432 -0.23708937 -0.066190355 0.043664727 -0.03703816 -0.11354303 0.028080054 0.013402022 -0.017315093 0.09358237 -0.060849033 0.078352585 0.026359467 0.114741765 0.04140454 -0.025594784 0.13212079 0.02185127 -0.110160105 -0.01747968 -0.083195046 -0.07604805 0.051434424 -0.037904225 -0.024236312 0.15772417 0.08144775 -0.027391158 0.024878852 0.01988035 0.11608298 -0.1068574 -0.03712102 0.04449094 -0.0024540275 -0.045433663 0.0367405 0.1290558 -0.17397332 0.05978215 0.0143059585 -0.10361387 -0.05277423 -0.030079056 -0.06442541 -0.011528893 -0.057441946 -0.050743524 0.03076377 -0.00684598 -0.15931538 0.17662834 0.19737251 -0.16495906 -0.022345234 -0.14572638 -0.13969392 -0.17710945 -0.06386471 0.074431315 0.082315676 -0.059739087 -0.17601138 -0.08901265 -0.019018702 0.1468349 -0.16260616 -0.10800588 -0.036626086 0.037729796 -0.041368946 0.068556204 -0.07565996 0.058092944 -0.22240183 0.0536241 -0.017186273 -0.086829044 0.26743886 -0.22476491 0.12345534 0.008849097 -0.08227452 -0.0037066392 0.066020936 -0.052552037 0.017843537 0.14994138 0.011977823 -0.02463953 -0.0112972595 0.11872349 0.069035284 -0.041233357 0.12230672 0.08414283 0.21214022 0.2062737 -0.18424106 0.09360779 -0.06686546 0.060486246 0.08259092 0.045406766 0.037763905 -0.06547535 -0.044318505 -0.08071472 0.014041737 0.092432894 0.08272313 0.28287762 -0.0151581485 -0.08678245 0.059480928 0.022294914 0.02237045 0.109452665 0.04015315 0.034630112 0.0023000021 -0.062118616 0.043524303 -0.0064418097 0.014371396 0.06920394 -0.02175137 0.0038371591 -0.12104805 -0.11137736 -0.09653534 -0.15695447 -0.043916605 0.021380493 -0.005477016 0.228143 -0.17337821 -0.061229896 0.1432133 -0.062220853 0.12245854 0.032629646 0.01269831 0.029250938 -0.10670959 0.049113274 0.156782 -0.031185796 -0.120060965 -0.0068466244 -0.20975679 0.06007536 0.13640119 0.14318064 0.03576379 0.044618525 0.008060742 0.069790654 -0.098727934 -0.09178893 0.021682752 0.055361915 -0.0138146095 0.16811801 0.031651776 0.040956777 0.013259419 -0.031475294 -0.03040848 0.022143478 0.19896437 -0.034230035 -0.18300466 -0.10542926 -0.079055004 0.10448749 0.0523958 -0.04855199 -0.029967595 0.18153316 -0.054572023 0.0015711624 0.03614955 0.08457267 -0.022234682 -0.09509947 -0.035681132 -0.114380606 0.068907514 -0.06268693 -0.004665521 -0.054895006 -0.113919325 0.0570195 -0.01951978 -0.04689115 0.12719078 0.0868611 -0.03235073 -0.11060439 0.0049510053 0.026206452 0.08960795 -0.11854166 -0.18829037 -0.06421458 -0.16353622 -0.026880907 0.021267667 -0.006076703 -0.009413704 -0.07614309 0.023480397 -0.025432823 -0.15822239 0.03258328 0.032310754 -0.17204842 0.032149147 0.0573558 -0.012381618 0.021358656 -0.04008463 0.03803511 0.14491743 -0.07475912 -0.024233354 0.024320833 -0.0482802 0.02255663 0.00074435177 -0.08580366 -0.00061829004 -0.024109293 -0.20032856 0.1413526 0.06379141 -0.013281557 -0.043251965 0.011146784 0.11095413 0.100335374 0.048716687 0.22327387 -0.13565409 0.0146918455 -0.1555798 -0.027915565 -0.07285914 0.01838317 -0.03357187 -0.18444255 -0.101566836 -0.067675345 -0.014498525 -0.09028912 -0.17877339 0.14635652 -0.14270331 -0.07017271 -0.11196986 -0.12944598 0.19864672 0.097233765 0.08730642 0.05738059 0.2530805 -0.040861804 0.0065819286 0.07419106 -0.10258903 0.115619764 -0.07334065 0.045883708 -0.039692517 -0.17037563 0.047771446 0.061247997 -0.079417646 0.013871138 -0.033437625 -0.124384396 -0.027442869 0.0046977852 0.02276061 0.13332365 0.16499247 -0.26502568
day -0.14095011 -0.1198488 -0.00433147 0.058740575 -0.07699257 0.034940295 0.06850487 -0.07829386 -0.1135334 -0.17198566 0.11550347 0.03073954 0.016125536 -0.24772531 -0.0676284 0.044684492 -0.03599911 -0.11598125 0.027777564 0.015481994 -0.017329779 0.09566904 -0.06252856 0.08017804 0.027990118 0.11986978 0.042419784 -0.026179124 0.13766514 0.020732693 -0.113580205 -0.014971853 -0.08494098 -0.0780111 0.056228995 -0.040570684 -0.023616018 0.16605544 0.083304666 -0.030987827 0.026123373 0.021291172 0.11951594 -0.11219481 -0.037729423 0.04913659 -0.0036726298 -0.048734836 0.03682305 0.13670696 -0.17916998 0.063931376 0.016006147 -0.10733512 -0.05246864 -0.03350021 -0.06835115 -0.0123488605 -0.061262064 -0.05399463 0.029566543 -0.005447871 -0.16638713 0.18325895 0.20793225 -0.17409986 -0.024141205 -0.15091728 -0.144121 -0.18362324 -0.06661432 0.07819943 0.08343676 -0.06390463 -0.1834287 -0.09392316 -0.019808514 0.15499407 -0.17058128 -0.112453476 -0.037402555 0.038086712 -0.040250704 0.07404491 -0.08087996 0.060035225 -0.23204575 0.055720467 -0.019408548 -0.0901905 0.27976915 -0.23466831 0.13094762 0.010306922 -0.08430048 -0.0010955115 0.06796937 -0.05375583 0.017908055 0.1555238 0.013379082 -0.024268394 -0.013571873 0.12273852 0.07280458 -0.042005867 0.12699512 0.087640814 0.22147937 0.21362898 -0.19100301 0.10023058 -0.06676803 0.062288523 0.088057995 0.046606623 0.039314866 -0.068185486 -0.045120336 -0.08160448 0.013178988 0.09623504 0.087861836 0.2960497 -0.015735675 -0.09284643 0.060841013 0.025172206 0.022620426 0.11328975 0.03871769 0.035712134 0.002472293 -0.065938845 0.048201516 -0.009067744 0.015296388 0.07060015 -0.02205466 0.0063456134 -0.12619124 -0.118605055 -0.10257215 -0.16430868 -0.045881297 0.020662915 -0.0052683726 0.23727165 -0.17924133 -0.061988313 0.15211023 -0.06346615 0.1282523 0.032716956 0.0125852395 0.031005278 -0.10890633 0.050373446 0.16521688 -0.034383796 -0.1241975 -0.008966113 -0.2175228 0.06340243 0.1439624 0.15022194 0.037425723 0.045669943 0.008582816 0.07257926 -0.10127811 -0.09630734 0.020160493 0.057211347 -0.013721104 0.17778985 0.03512797 0.044997733 0.014418897 -0.032002673 -0.031826112 0.023809403 0.20704721 -0.033499755 -0.19197252 -0.107840285 -0.082713805 0.10970025 0.0535787 -0.050077856 -0.03177268 0.18881609 -0.057410248 0.00061093416 0.03924984 0.087879136 -0.021312216 -0.09983825 -0.039812937 -0.117971994 0.07155635 -0.067528956 -0.0043651476 -0.056948286 -0.12006038 0.0576195 -0.021649709 -0.04782957 0.1349493 0.091128625 -0.033722673 -0.11304222 0.0048921653 0.02785608 0.090720795 -0.12069404 -0.19611251 -0.06671001 -0.1709166 -0.027762013 0.023654286 -0.0049445624 -0.011374867 -0.08110384 0.023739016 -0.027807567 -0.16313688 0.03574585 0.033950098 -0.18166037 0.03354426 0.0618506 -0.012619346 0.021875532 -0.039520778 0.041093815 0.1500608 -0.077155754 -0.02612376 0.02350139 -0.052439436 0.023826774 0.0014114705 -0.0872952 -0.0037553895 -0.026390567 -0.21034476 0.1467738 0.06629459 -0.015410347 -0.043580655 0.012620412 0.1157582 0.10527151 0.050854877 0.23567492 -0.13924716 0.015347072 -0.16272572 -0.030172767 -0.07632329 0.01934764 -0.03539093 -0.19228278 -0.10734337 -0.072734036 -0.013253635 -0.094271176 -0.18708555 0.15415184 -0.149743 -0.07147744 -0.11553624 -0.13265355 0.20514901 0.10009858 0.09178912 0.061179075 0.26151025 -0.04006397 0.005094723 0.07463694 -0.105458856 0.12194864 -0.07752093 0.04771716 -0.040544175 -0.17767484 0.049564395 0.062149175 -0.08072334 0.012609399 -0.03451991 -0.13176848 -0.029052356 0.0057568816 0.024391122 0.13877204 0.17227533 -0.27582955
do -0.13109834 -0.11482855 -0.0063965153 0.05419806 -0.071515456 0.034296546 0.0654423 -0.07074867 -0.106808886 -0.15928923 0.10845737 0.0306343 0.015519946 -0.23011728 -0.06290132 0.043075033 -0.035283662 -0.11061889 0.024289064 0.014660626 -0.014774503 0.08896034 -0.059447538 0.07528063 0.025246128 0.11455614 0.04085427 -0.024112567 0.13041112 0.019303786 -0.10766892 -0.014546724 -0.079396866 -0.075051546 0.050219852 -0.03679306 -0.024562063 0.15451644 0.07955329 -0.02932598 0.023793139 0.018094901 0.11073753 -0.10585924 -0.035378862 0.042935397 -0.0039137336 -0.044150557 0.037092913 0.1277167 -0.16751552 0.05841754 0.015027266 -0.100905046 -0.05136341 -0.031401552 -0.062833324 -0.010450081 -0.058153085 -0.050161 0.028029233 -0.008207153 -0.15570432 0.17143987 0.19358122 -0.16310875 -0.021364624 -0.141966 -0.1345712 -0.17230482 -0.062416553 0.07007819 0.079266675 -0.058139943 -0.1728059 -0.08780174 -0.018445993 0.14447075 -0.1599042 -0.10445776 -0.035561606 0.03814437 -0.040021837 0.06730959 -0.0750399 0.058026552 -0.21889022 0.05204071 -0.018206364 -0.08430772 0.26214683 -0.21789208 0.122880794 0.010848927 -0.080404624 -0.0035131697 0.06366423 -0.051845036 0.017289966 0.14339383 0.0119300345 -0.023059405 -0.0111348545 0.11647591 0.06740781 -0.039182667 0.1193771 0.08064256 0.20808081 0.20045033 -0.1801478 0.09292738 -0.06514695 0.0572663 0.08052707 0.044686895 0.038362738 -0.06451721 -0.043302417 -0.07821088 0.015029391 0.090945095 0.08125249 0.2779094 -0.013586843 -0.083829746 0.055605534 0.02388253 0.022620209 0.1071543 0.036847707 0.03497699 0.0026987141 -0.05986957 0.0425975 -0.0075115035 0.015121572 0.06783607 -0.018879438 0.00473024 -0.11755211 -0.11004797 -0.09399226 -0.15404905 -0.040866807 0.020312665 -0.005000367 0.22407155 -0.16684338 -0.06006675 0.14210787 -0.060047764 0.120288216 0.030393383 0.012111228 0.027580207 -0.10468833 0.047847282 0.15213063 -0.029927198 -0.11626315 -0.008914148 -0.20554271 0.059676677 0.13423088 0.14179824 0.034050677 0.042905636 0.0075544766 0.06751657 -0.093981355 -0.091207415 0.020977909 0.054074194 -0.011492773 0.1661304 0.032434866 0.041254118 0.014452048 -0.030072903 -0.02911517 0.022628993 0.19443135 -0.033502486 -0.17925608 -0.10306717 -0.07520069 0.1018328 0.051819883 -0.045856968 -0.029640824 0.17445168 -0.05298683 0.0016513035 0.03669039 0.08185037 -0.022626383 -0.09488225 -0.037362106 -0.1129656 0.06472728 -0.062840074 -0.0037565506 -0.05400049 -0.11276966 0.055599857 -0.021337 -0.045856193 0.123714134 0.084817156 -0.031487137 -0.10557651 0.002714681 0.025012948 0.085651174 -0.112819225 -0.18095027 -0.064082175 -0.1581546 -0.025394185 0.022440575 -0.0074347374 -0.009388765 -0.07586095 0.021906704 -0.026489155 -0.15513873 0.03168172 0.031058507 -0.16904615 0.03397703 0.055099558 -0.013967801 0.02201899 -0.03625111 0.038134176 0.14039402 -0.073034994 -0.025283277 0.020741643 -0.04922446 0.02436984 0.0012996764 -0.084607184 -0.0019376285 -0.025063543 -0.19407809 0.13815574 0.06129895 -0.015292383 -0.03999601 0.013026678 0.10683475 0.098247826 0.047767833 0.21818317 -0.13222174 0.0153383175 -0.15295024 -0.027629223 -0.07218322 0.017698176 -0.03206127 -0.17904325 -0.09826922 -0.06677403 -0.012553516 -0.08774356 -0.17501879 0.14362693 -0.14004649 -0.06780259 -0.10638455 -0.12618542 0.19491124 0.093777046 0.08560591 0.05432648 0.24596737 -0.039141297 0.0059997817 0.071323946 -0.09872778 0.114651866 -0.072772 0.043286044 -0.03891629 -0.16495633 0.047408715 0.059046082 -0.07749725 0.013999234 -0.03343889 -0.12383258 -0.025040027 0.006535448 0.023285966 0.12784353 0.16176285 -0.2560139
noi -0.11695925 -0.09868256 -0.005257998 0.04787198 -0.06279103 0.029945044 0.05633442 -0.06332946 -0.09360526 -0.1419969 0.094737865 0.02515136 0.0127028795 -0.20283586 -0.054883953 0.037289843 -0.030724917 -0.09559927 0.021262335 0.011312084 -0.013593347 0.07909105 -0.050607458 0.06763693 0.023606494 0.09799326 0.033349838 -0.02085534 0.11420103 0.017176911 -0.09363366 -0.012211859 -0.07158774 -0.065636955 0.04566987 -0.033078045 -0.020453472 0.13310897 0.067392275 -0.023838777 0.019515283 0.015747534 0.09942342 -0.09267743 -0.031946734 0.038497187 -0.0025445228 -0.039434284 0.029886594 0.109840564 -0.1490522 0.053168524 0.014959513 -0.0873213 -0.045562748 -0.027556218 -0.05422844 -0.011535143 -0.05126045 -0.043076873 0.024406292 -0.005861909 -0.13655575 0.14907214 0.1682923 -0.14266655 -0.01784901 -0.12336599 -0.118784465 -0.15285373 -0.053764623 0.061419647 0.07050269 -0.04925795 -0.1519215 -0.07814975 -0.016569283 0.12532027 -0.13907705 -0.091810524 -0.029195938 0.031619634 -0.032611936 0.06036189 -0.0658711 0.049014922 -0.18852174 0.045200143 -0.016687235 -0.07427543 0.22914642 -0.19118026 0.107651 0.010073674 -0.068137415 -0.00039109326 0.05483558 -0.04456436 0.014082839 0.12808634 0.009304313 -0.022211252 -0.012012401 0.10029387 0.060242295 -0.033508215 0.10288642 0.07049943 0.18284194 0.17589873 -0.1571803 0.08171973 -0.05555064 0.049496986 0.0731428 0.037031367 0.03208313 -0.057034217 -0.035238836 -0.06687833 0.010584377 0.078000136 0.06988 0.24066733 -0.013456151 -0.07623846 0.04906173 0.018446863 0.018584583 0.0912856 0.03168371 0.030319985 0.0030773832 -0.052365538 0.037508085 -0.0061141048 0.013290816 0.058094516 -0.019112242 0.0035025098 -0.10391024 -0.09740529 -0.081172146 -0.13337651 -0.036387525 0.016390685 -0.0024903829 0.19514893 -0.1487393 -0.05345285 0.123745814 -0.052002113 0.10560656 0.025444657 0.012015917 0.023917336 -0.088579156 0.040408004 0.1336031 -0.02770614 -0.10182925 -0.006895299 -0.17949489 0.051347703 0.118926145 0.12413881 0.02895597 0.03799594 0.009258085 0.061528787 -0.08233091 -0.077892 0.016071126 0.047551118 -0.0118869925 0.14438052 0.026701827 0.035742518 0.010523489 -0.025692942 -0.025573995 0.018722786 0.1705819 -0.027036473 -0.15772805 -0.088499494 -0.06721319 0.09104824 0.04516564 -0.041699268 -0.025270376 0.15398352 -0.047255974 0.0013538718 0.030612784 0.07150512 -0.01964822 -0.081628464 -0.032238208 -0.09807565 0.058559116 -0.055187467 -0.003586897 -0.0462512 -0.096815154 0.04977515 -0.016235415 -0.039516 0.11025866 0.075098775 -0.027989794 -0.09424368 0.004951077 0.021295913 0.07414507 -0.099811845 -0.16065249 -0.055247385 -0.13998306 -0.022948328 0.017832533 -0.0048140814 -0.009924893 -0.06558561 0.019635888 -0.024389697 -0.13565649 0.028955145 0.028334524 -0.14881887 0.029104507 0.049976148 -0.00968865 0.018885989 -0.033671193 0.030896513 0.124389075 -0.064194 -0.020623326 0.01810989 -0.04100413 0.019210482 0.002001445 -0.07359304 -0.00094935746 -0.020714773 -0.17096983 0.12203451 0.05510143 -0.01229917 -0.036919966 0.010944746 0.09475474 0.08703261 0.040960908 0.19297282 -0.11279539 0.013626871 -0.13527527 -0.024155708 -0.06257671 0.015868748 -0.030545605 -0.15584324 -0.086825736 -0.05742968 -0.010579652 -0.07596029 -0.15161882 0.12387582 -0.1237451 -0.059698258 -0.09552601 -0.110888466 0.16943951 0.08280573 0.076223336 0.049092807 0.21507473 -0.034935195 0.0031578585 0.063178815 -0.087876186 0.100471795 -0.062772766 0.039655432 -0.03282394 -0.1462455 0.04021032 0.05290393 -0.06558031 0.010986856 -0.028255465 -0.10897384 -0.021478098 0.00461826 0.02090509 0.111425884 0.14033645 -0.22490096
chung -0.13692881 -0.11576913 -0.006414352 0.05474276 -0.07108427 0.034793805 0.06577481 -0.07385093 -0.11027531 -0.16737849 0.11016346 0.03159596 0.015015397 -0.23893654 -0.06464945 0.04192058 -0.03556368 -0.111997455 0.026082028 0.014757019 -0.016830178 0.09367141 -0.061162658 0.07823293 0.02813124 0.11767926 0.04190202 -0.025125585 0.13344695 0.021142779 -0.111716755 -0.01654892 -0.08242474 -0.077471115 0.052375 -0.03762991 -0.025407732 0.15959997 0.08134887 -0.030546926 0.022509633 0.017534988 0.11580887 -0.10801672 -0.03842014 0.044783402 -0.0042127254 -0.04527726 0.038338333 0.13078925 -0.17284682 0.061682872 0.014360007 -0.10410826 -0.053018197 -0.031770606 -0.06458206 -0.01212058 -0.058898155 -0.05176289 0.031118294 -0.006819215 -0.1592739 0.17540057 0.19938567 -0.16547905 -0.023400929 -0.14641485 -0.14019257 -0.17875078 -0.06401643 0.074031904 0.082667775 -0.06169726 -0.1785997 -0.089749485 -0.018963777 0.1470786 -0.16388755 -0.107671194 -0.035825256 0.039422657 -0.04126741 0.07178959 -0.07617564 0.060525205 -0.22574899 0.051433504 -0.01765649 -0.088754125 0.26866856 -0.22636716 0.12384091 0.010315768 -0.081793755 -0.0012816834 0.06481547 -0.052295946 0.01732991 0.15094098 0.010340371 -0.023283267 -0.011971822 0.119834274 0.06858545 -0.041238558 0.122827664 0.08465095 0.21314806 0.20601436 -0.18665436 0.09469131 -0.06530958 0.05829827 0.08479264 0.04676963 0.037273455 -0.06543899 -0.044918366 -0.07815489 0.012921497 0.09442163 0.08340107 0.28682473 -0.016787324 -0.08764827 0.057431407 0.021508342 0.021945266 0.108675 0.03730311 0.034243505 0.004174592 -0.063772544 0.04599499 -0.008658189 0.016447252 0.07009416 -0.022309933 0.0055203806 -0.122956485 -0.1134008 -0.09916637 -0.15718013 -0.04454504 0.018889805 -0.0063049006 0.23113099 -0.17516716 -0.06128095 0.14659531 -0.060999006 0.12427977 0.0325784 0.014135422 0.029210204 -0.10731012 0.04689268 0.15924907 -0.031025125 -0.11944395 -0.00808606 -0.2124127 0.06138874 0.13898408 0.14425026 0.03303508 0.043266825 0.010704057 0.07174886 -0.09874518 -0.09330719 0.021060564 0.053997684 -0.014564346 0.17099528 0.03221905 0.041489877 0.014440837 -0.03108018 -0.029298954 0.023974251 0.19978559 -0.03514925 -0.1861199 -0.10469223 -0.08026671 0.10584322 0.05152853 -0.047546457 -0.031366248 0.18284295 -0.054260347 2.06906e-05 0.035655487 0.08299016 -0.020176928 -0.09854012 -0.03619239 -0.11606677 0.069172814 -0.065738335 -0.00465811 -0.05681535 -0.11463274 0.057549983 -0.02219706 -0.046809483 0.12876393 0.08572927 -0.033635672 -0.10992252 0.004793345 0.02534381 0.09027357 -0.11860253 -0.18912436 -0.06538189 -0.16243981 -0.029006798 0.021173824 -0.005954994 -0.011628336 -0.079629876 0.023275364 -0.025617162 -0.15936427 0.032661576 0.034204103 -0.17318459 0.033659987 0.05834877 -0.014566546 0.023121005 -0.040168468 0.039309934 0.14683123 -0.073741086 -0.023760363 0.021532152 -0.050523527 0.023091387 0.0009200502 -0.08439935 -0.0036278397 -0.022576656 -0.20279415 0.14298072 0.062172912 -0.015517849 -0.04243624 0.012575491 0.11230553 0.10365882 0.048856307 0.22697233 -0.1347992 0.013691106 -0.15741195 -0.027988385 -0.073811606 0.01887465 -0.033189178 -0.18284453 -0.10218448 -0.07009593 -0.014103019 -0.08990467 -0.18026716 0.1487041 -0.14406316 -0.06961527 -0.11309483 -0.130635 0.20011215 0.09614676 0.08778049 0.059321277 0.25286153 -0.040228043 0.0059158504 0.07195397 -0.10116263 0.11669861 -0.07503954 0.045466535 -0.04033704 -0.1708017 0.04812944 0.05983044 -0.08084662 0.014299674 -0.035254866 -0.12688822 -0.026043959 0.00589567 0.023510782 0.13288954 0.1670448 -0.26521593
cho -0.10540435 -0.090470806 -0.003505921 0.04281248 -0.056877617 0.025286969 0.052921396 -0.056609675 -0.08511406 -0.12618223 0.08690382 0.023852717 0.01374232 -0.1813366 -0.051309474 0.033134732 -0.027734179 -0.087571196 0.021308763 0.0110061765 -0.013455659 0.07239722 -0.04744245 0.062159617 0.02159277 0.08811747 0.032021683 -0.019123679 0.102185376 0.014252397 -0.085534245 -0.012384809 -0.0630164 -0.056915276 0.04011225 -0.028104113 -0.018417688 0.1226678 0.06345466 -0.023030156 0.019721886 0.014269111 0.08814608 -0.0824435 -0.030156972 0.03562648 -0.0026129798 -0.03611606 0.028462738 0.10161147 -0.13298282 0.04833623 0.012213996 -0.08079057 -0.04122381 -0.024892619 -0.04877207 -0.0089008985 -0.04483986 -0.03925179 0.02423576 -0.006441047 -0.122902706 0.13704474 0.154514 -0.12951687 -0.017414963 -0.11212231 -0.109138064 -0.13835213 -0.049089443 0.05647842 0.062555544 -0.04611054 -0.13528253 -0.06942574 -0.014120025 0.11525855 -0.12668675 -0.08389914 -0.027891003 0.028779361 -0.029314667 0.054058462 -0.058774717 0.047037035 -0.1710537 0.041295204 -0.012406293 -0.066542864 0.20846464 -0.17432652 0.09749122 0.007044829 -0.062578306 -0.000680028 0.048461515 -0.04000699 0.014143507 0.11518307 0.010530487 -0.01955541 -0.010697567 0.09041157 0.05431363 -0.031198982 0.092273325 0.06447266 0.16666827 0.15762347 -0.14402801 0.07433846 -0.051890038 0.047683753 0.06491904 0.034300268 0.02879186 -0.051247522 -0.033997178 -0.060144696 0.012423328 0.07211528 0.06381484 0.2185698 -0.012648599 -0.067582235 0.045871716 0.01766722 0.016780218 0.08468447 0.03085332 0.02885538 0.0016233688 -0.04769735 0.03657211 -0.0046250024 0.013269698 0.053710554 -0.015669694 0.00490402 -0.094112135 -0.08701252 -0.07539893 -0.12023606 -0.03546936 0.01701979 -0.00482807 0.17801598 -0.13326262 -0.045444608 0.11354551 -0.048242085 0.095896296 0.02452642 0.009977751 0.021804972 -0.08152095 0.037366014 0.122037984 -0.025359025 -0.090662025 -0.007443575 -0.16338094 0.04512019 0.10694262 0.112824455 0.025105113 0.034240797 0.006297385 0.056070145 -0.07708023 -0.07233213 0.0145060215 0.042054325 -0.008447534 0.13033307 0.025161937 0.03334276 0.009501756 -0.023112072 -0.021713452 0.018018644 0.15258324 -0.026533315 -0.14226155 -0.081442185 -0.060767177 0.079865664 0.041458007 -0.03811093 -0.024477314 0.13935038 -0.044294536 0.001209842 0.029530773 0.0658608 -0.018127931 -0.073679745 -0.030178733 -0.08835759 0.054276314 -0.04990679 -0.0030728306 -0.042074066 -0.089513116 0.04382234 -0.015797853 -0.034245133 0.09754817 0.06679519 -0.025907187 -0.08340159 0.0029933231 0.019124556 0.06779298 -0.09184098 -0.14482503 -0.050531395 -0.12679844 -0.021636633 0.017140556 -0.006313574 -0.0075598164 -0.058824427 0.01856867 -0.021025699 -0.12298414 0.026169907 0.026700342 -0.1322064 0.026053322 0.04484759 -0.01060036 0.015905974 -0.029586188 0.028838249 0.113277346 -0.058677427 -0.019275438 0.016683985 -0.038055547 0.020127594 0.00022245917 -0.06466764 -0.0024587554 -0.01776426 -0.15629308 0.108851306 0.049790956 -0.01181768 -0.03191459 0.0078056445 0.08592462 0.07731623 0.038568836 0.17428787 -0.10496698 0.01216577 -0.12110466 -0.022505572 -0.056326985 0.013289518 -0.027456068 -0.14339581 -0.07783277 -0.054536752 -0.009999278 -0.07047931 -0.13827556 0.11510239 -0.1117879 -0.053296357 -0.08703388 -0.09828319 0.15479179 0.07253542 0.069488816 0.045777883 0.19452702 -0.031736016 0.0053616883 0.056940828 -0.07904357 0.08984013 -0.056608707 0.0343947 -0.031614203 -0.13024324 0.037152812 0.045516625 -0.06010474 0.010644463 -0.02680501 -0.098961964 -0.02041374 0.004674572 0.018965913 0.10188492 0.12895265 -0.203987
da -0.13025121 -0.11210525 -0.0043157013 0.053020913 -0.06933385 0.03306443 0.06209664 -0.07033623 -0.10240653 -0.1588087 0.10596654 0.030459806 0.0138001805 -0.2266128 -0.060424197 0.039263852 -0.032392133 -0.105358 0.025003523 0.01385456 -0.016934007 0.08618334 -0.055739038 0.07310228 0.02631202 0.11160814 0.040234115 -0.024970295 0.12616883 0.020320527 -0.10493525 -0.013856718 -0.07912926 -0.07253789 0.051659357 -0.036502913 -0.024023674 0.14929721 0.07820372 -0.029119674 0.020942425 0.019180734 0.11043365 -0.101787105 -0.034991935 0.04274384 -0.003173493 -0.04369669 0.03628327 0.124114454 -0.16558899 0.057714894 0.016412158 -0.09723391 -0.049350463 -0.02894443 -0.06270418 -0.012707698 -0.056585997 -0.048829764 0.02643619 -0.005670159 -0.15034886 0.16817823 0.18897587 -0.15895882 -0.020185007 -0.13753748 -0.13100845 -0.1685571 -0.06197844 0.06865657 0.07755627 -0.058471523 -0.16903186 -0.08648257 -0.016604189 0.1416023 -0.15621208 -0.10307512 -0.035207406 0.034704868 -0.0381865 0.066342086 -0.07296807 0.058002353 -0.21413589 0.04844086 -0.018003833 -0.08244685 0.25489178 -0.21253459 0.11958265 0.010803829 -0.076386094 -0.001493324 0.061893262 -0.048067704 0.015212433 0.14088513 0.010486765 -0.022021137 -0.011958336 0.11376948 0.064119734 -0.03891862 0.11429705 0.07879376 0.20433074 0.19408596 -0.17519079 0.090109974 -0.06368734 0.058089893 0.08127303 0.044497382 0.036480684 -0.061857432 -0.040820993 -0.075313844 0.012494846 0.08739179 0.08124479 0.2708431 -0.0155471675 -0.08513158 0.055903986 0.021098023 0.021875888 0.10430524 0.035602022 0.033620592 0.0036767295 -0.05806377 0.04233537 -0.0061347988 0.014841021 0.065050706 -0.018801808 0.0059520486 -0.11469268 -0.10583068 -0.092195384 -0.15064847 -0.041342814 0.01905381 -0.0039764433 0.21673366 -0.16609184 -0.057699703 0.13838775 -0.060141403 0.12007686 0.029015537 0.0116294585 0.026619254 -0.102281176 0.04631471 0.15062948 -0.031173313 -0.11272425 -0.009016078 -0.20147121 0.05536749 0.13029799 0.13648714 0.031856984 0.04219486 0.007693801 0.06717822 -0.092088334 -0.08722383 0.018928139 0.052932803 -0.012698288 0.16266945 0.030570386 0.041705884 0.011141171 -0.030224884 -0.026551802 0.023069227 0.1874434 -0.032309707 -0.17675292 -0.101139605 -0.07483376 0.09891576 0.051392514 -0.047269337 -0.028275952 0.17049992 -0.054033536 0.00039096456 0.03453615 0.08043611 -0.020272784 -0.093214855 -0.036312584 -0.10773745 0.06506808 -0.06185583 -0.004615034 -0.051404897 -0.10993032 0.05391362 -0.018718932 -0.042648382 0.12230937 0.08085851 -0.03224863 -0.104388386 0.0036873422 0.024491623 0.0836178 -0.11264549 -0.17829944 -0.06146302 -0.1537837 -0.027291259 0.01904984 -0.0053002434 -0.008850851 -0.07518507 0.022693697 -0.02742454 -0.14875995 0.033206996 0.029781627 -0.16447383 0.031078998 0.055802718 -0.011433496 0.020453302 -0.035460826 0.035530128 0.1393546 -0.07176262 -0.023228101 0.02176705 -0.046305843 0.02250822 0.0025092922 -0.08072545 -0.002893932 -0.023439143 -0.19008422 0.1368303 0.059088875 -0.012479912 -0.04075239 0.012317773 0.10378916 0.095813885 0.047183685 0.2135243 -0.12817004 0.013298 -0.15116362 -0.028932048 -0.070606634 0.015978197 -0.031806655 -0.17576817 -0.09748022 -0.06603171 -0.012176533 -0.0851489 -0.17189747 0.14161631 -0.13638888 -0.067556374 -0.106334805 -0.12252611 0.18968403 0.08992317 0.085111804 0.054746937 0.2414732 -0.037834283 0.005725689 0.06896764 -0.09648432 0.110362805 -0.069081016 0.04413057 -0.0387039 -0.16363862 0.046661653 0.057620674 -0.07466646 0.013481388 -0.032191012 -0.119402856 -0.026856178 0.005076772 0.024948435 0.1269425 0.15695748 -0.25149718
nao -0.10987598 -0.09682595 -0.0034324985 0.046011023 -0.058545273 0.027820643 0.055805176 -0.06179346 -0.09057978 -0.13546082 0.09193783 0.026521703 0.012686751 -0.19528693 -0.05343248 0.0352884 -0.028099876 -0.092247695 0.02151804 0.010374046 -0.0147105465 0.07536325 -0.050194003 0.06474436 0.022506276 0.0964946 0.032500885 -0.019812683 0.107450336 0.016277412 -0.089211985 -0.014079856 -0.06852447 -0.061181474 0.04514236 -0.030658778 -0.018253028 0.12897529 0.067806266 -0.02382165 0.018182777 0.014684595 0.09559918 -0.0871467 -0.03159793 0.036714133 -0.0037801573 -0.03708651 0.029374614 0.10777769 -0.14364286 0.051600784 0.014348955 -0.08302332 -0.04298396 -0.024643827 -0.05368587 -0.009729507 -0.047068845 -0.043293007 0.023864286 -0.0061949794 -0.12901877 0.14316095 0.16261292 -0.136187 -0.018746179 -0.12144437 -0.113606475 -0.14691634 -0.053426806 0.061407357 0.06794841 -0.048534807 -0.14650571 -0.07384475 -0.014374712 0.1224286 -0.13473755 -0.08909049 -0.02995739 0.031152 -0.03165829 0.058512073 -0.062647626 0.047364086 -0.18404548 0.042749647 -0.014480507 -0.070780754 0.22160989 -0.18339373 0.10285332 0.008387769 -0.06560033 -0.0024281796 0.054374866 -0.042506635 0.01485832 0.12320323 0.008892675 -0.020979054 -0.010985421 0.0992552 0.054944564 -0.031705968 0.09923378 0.06818239 0.17593239 0.16856663 -0.15284957 0.077089995 -0.05238781 0.04894909 0.06934551 0.038079023 0.030802889 -0.052058466 -0.03549019 -0.064616345 0.011716335 0.07541782 0.06903778 0.23342672 -0.014022599 -0.07375496 0.047357503 0.018394148 0.02054011 0.08911217 0.03282615 0.027880406 0.0013848019 -0.05054471 0.036445275 -0.0065325955 0.01334909 0.05580973 -0.01661879 0.0035199241 -0.1017006 -0.093285255 -0.078459784 -0.12992969 -0.036630753 0.017910134 -0.003224376 0.18916869 -0.14105998 -0.05058352 0.119022995 -0.049048603 0.10233585 0.024380762 0.009939403 0.022598242 -0.08762498 0.039199278 0.12837054 -0.026095154 -0.0961293 -0.0076610656 -0.17207587 0.050963767 0.11203267 0.11985819 0.027414942 0.03714575 0.006972327 0.058690187 -0.081381865 -0.07487331 0.016034303 0.045884017 -0.010975686 0.1407068 0.028958298 0.03348464 0.010980336 -0.02667633 -0.02353745 0.017433072 0.16191 -0.026367921 -0.15118778 -0.08643643 -0.065657906 0.085961945 0.044973943 -0.038935397 -0.023651445 0.14912175 -0.046866123 0.0010652324 0.031996388 0.06788219 -0.01639799 -0.07998471 -0.03106647 -0.09511209 0.05654381 -0.05208218 -0.0020422768 -0.04481879 -0.09555586 0.046104033 -0.01817411 -0.038705375 0.107010126 0.07140267 -0.028042626 -0.09077267 0.0037201636 0.020152371 0.07375719 -0.095453896 -0.15292223 -0.055153865 -0.13524733 -0.02433264 0.016855825 -0.006288582 -0.008667692 -0.06462269 0.020047793 -0.022619084 -0.12988031 0.02741581 0.027374817 -0.14175144 0.026372321 0.048976835 -0.012328339 0.017545873 -0.031422447 0.03129445 0.117684 -0.062819295 -0.020212295 0.018043634 -0.04026915 0.021343362 0.0004900173 -0.071053155 -0.0022666964 -0.01827757 -0.1636363 0.11819229 0.050432358 -0.010638387 -0.034361027 0.010797765 0.09047934 0.08472578 0.04161021 0.18537112 -0.11167681 0.011383106 -0.12849742 -0.02457773 -0.061719194 0.013609162 -0.028475149 -0.1499401 -0.08478069 -0.05512023 -0.011578828 -0.07417625 -0.14675072 0.122050986 -0.11766399 -0.056122426 -0.09269813 -0.1070346 0.16436069 0.07956613 0.072998144 0.048679173 0.2074037 -0.03375428 0.0028636812 0.05967938 -0.08474737 0.09538875 -0.059484106 0.036107283 -0.032361675 -0.14078897 0.039412037 0.049119387 -0.0637551 0.009911545 -0.02635488 -0.104298845 -0.022398913 0.00331862 0.02073775 0.11052152 0.1353892 -0.21766205
o -0.12683876 -0.10715122 -0.0055511906 0.04961674 -0.06715822 0.03124029 0.063072436 -0.06728152 -0.10076784 -0.15183166 0.10126898 0.027207563 0.014086294 -0.22058327 -0.061471425 0.04085959 -0.03278723 -0.104957245 0.02349703 0.01176121 -0.015490197 0.08515371 -0.05628446 0.07153941 0.025526239 0.10858 0.037216045 -0.022830471 0.12339658 0.018601013 -0.10109477 -0.014298427 -0.07694584 -0.071247436 0.049458817 -0.035798915 -0.021571506 0.14658932 0.07311598 -0.027777722 0.023253396 0.019251958 0.10630927 -0.10062661 -0.034317207 0.04225422 -0.0031399091 -0.042944565 0.032495152 0.12106518 -0.16014759 0.05529933 0.014284406 -0.0954671 -0.046870366 -0.029396702 -0.061405625 -0.01060712 -0.054032143 -0.048188195 0.027497118 -0.00783992 -0.14783873 0.16298814 0.18366233 -0.15275529 -0.019325906 -0.13672177 -0.12903967 -0.16349223 -0.05990641 0.066550486 0.07478116 -0.054002564 -0.16421938 -0.08374316 -0.017124787 0.13824111 -0.15207726 -0.1016664 -0.03264751 0.034613136 -0.03665458 0.06425229 -0.0717118 0.054842077 -0.20706895 0.048465643 -0.017330162 -0.0812862 0.24738415 -0.20609292 0.1164488 0.00867721 -0.07374795 -0.002354295 0.05863284 -0.049197514 0.014185577 0.1379179 0.009476339 -0.022774821 -0.011460447 0.1087141 0.06335021 -0.03603169 0.1131068 0.076146096 0.19830851 0.19166683 -0.169788 0.08941735 -0.062188067 0.0547379 0.07817927 0.04278964 0.034928855 -0.061174747 -0.039932802 -0.07389595 0.012699147 0.08511257 0.07875515 0.26234022 -0.014901439 -0.08246712 0.055551946 0.021237928 0.01966038 0.10167478 0.034958456 0.034700483 0.0015689187 -0.056688737 0.042621788 -0.0052633113 0.01232197 0.0644189 -0.018425819 0.0038996297 -0.11249752 -0.10587779 -0.08816636 -0.14417502 -0.04109735 0.01985066 -0.0050472203 0.21289858 -0.16158508 -0.05530779 0.13314629 -0.055518847 0.115449086 0.029023493 0.012057623 0.027089283 -0.09864003 0.04360833 0.14746404 -0.028936952 -0.109803736 -0.009074557 -0.19371629 0.05493549 0.12766007 0.1354046 0.03343561 0.042417265 0.009085572 0.066206984 -0.08900839 -0.08454852 0.019106606 0.051313028 -0.010937536 0.15551959 0.02986706 0.039448615 0.012775673 -0.030138103 -0.027216977 0.020105373 0.1838112 -0.031460535 -0.17013028 -0.09586695 -0.0732557 0.097991996 0.048873182 -0.045318186 -0.027922522 0.16717343 -0.0497113 0.001123877 0.034245502 0.07655376 -0.019918723 -0.088901654 -0.035426833 -0.1072122 0.062246043 -0.058845203 -0.0025724415 -0.051094953 -0.10623666 0.052603327 -0.018292863 -0.041772038 0.11896656 0.08032432 -0.030557036 -0.10217882 0.0020581463 0.02251178 0.0820815 -0.10947511 -0.17478906 -0.06088724 -0.15110974 -0.02643695 0.021409322 -0.0066202837 -0.008945606 -0.07354384 0.019890534 -0.024887936 -0.14704117 0.03068914 0.029397054 -0.15988128 0.03141683 0.052501827 -0.011222693 0.02087386 -0.035832457 0.036540315 0.1336625 -0.068809785 -0.023335457 0.02109588 -0.045698665 0.02347542 0.0011281271 -0.08070024 -0.0029677134 -0.021125613 -0.1855805 0.13155247 0.06003689 -0.012718057 -0.040157847 0.009232556 0.101547755 0.09323085 0.045451324 0.20891987 -0.124902 0.013956983 -0.14556076 -0.026272595 -0.0695885 0.017430825 -0.03244637 -0.16972965 -0.09533694 -0.064243235 -0.014128208 -0.08245179 -0.1670729 0.13674426 -0.13370669 -0.065745234 -0.10190346 -0.11818706 0.18290238 0.08819003 0.08125199 0.053953953 0.2326813 -0.037202723 0.006669424 0.066550896 -0.093783125 0.109890655 -0.06720651 0.041048657 -0.038386356 -0.15831248 0.0449378 0.05509313 -0.07394772 0.010774341 -0.03147394 -0.11720664 -0.026139947 0.0040408983 0.02327374 0.12399896 0.15214139 -0.24611302
ta -0.11933663 -0.10556931 -0.0046738046 0.048809957 -0.06443288 0.029236412 0.06147413 -0.06517029 -0.09664907 -0.14887828 0.09771913 0.02752534 0.014655275 -0.21031722 -0.05642724 0.039458074 -0.030375356 -0.10113776 0.022687467 0.010809041 -0.016489455 0.083654575 -0.054857444 0.06949244 0.024666617 0.105303176 0.037675157 -0.023579817 0.117628336 0.016648313 -0.09737113 -0.014316379 -0.074441105 -0.068205185 0.047047406 -0.03579778 -0.020709021 0.14042321 0.07097602 -0.026640931 0.020051373 0.015759997 0.10270915 -0.09731939 -0.032248918 0.040325273 -0.0029900242 -0.03999407 0.033808876 0.11717226 -0.15545022 0.05381899 0.012411518 -0.091479205 -0.04676846 -0.027479343 -0.059187353 -0.011243061 -0.052412365 -0.04465383 0.02768552 -0.0045719985 -0.1425981 0.15631968 0.17720665 -0.14915214 -0.01942163 -0.13073395 -0.12387092 -0.1574932 -0.055964123 0.06585936 0.073626064 -0.05250881 -0.15940654 -0.0801367 -0.016708167 0.1306264 -0.1477748 -0.097259976 -0.032830566 0.032964535 -0.03717662 0.063446864 -0.06795592 0.052736126 -0.20060024 0.04786309 -0.01654115 -0.077076405 0.24063362 -0.19991335 0.11209314 0.010074804 -0.07293417 -0.0006629683 0.056895245 -0.04680737 0.014447473 0.13208266 0.010377715 -0.021505946 -0.009999103 0.10522586 0.061076254 -0.035068072 0.10904082 0.07343842 0.1894648 0.18354122 -0.16427374 0.08505635 -0.057828207 0.05360383 0.075112134 0.040496703 0.03548344 -0.058761835 -0.038434554 -0.07116675 0.012679737 0.08304521 0.074865624 0.25261548 -0.01294284 -0.0778069 0.05348197 0.020520834 0.018732762 0.09730991 0.033801105 0.032670476 0.0027535753 -0.056143723 0.040136687 -0.005585097 0.014076701 0.062172737 -0.017653374 0.004551174 -0.10734022 -0.099795364 -0.08499806 -0.13986291 -0.040156092 0.017739255 -0.0031798151 0.20414144 -0.1557119 -0.053774424 0.12958631 -0.054224882 0.11037959 0.02644518 0.013521701 0.026192706 -0.094927974 0.042035963 0.13949157 -0.029898647 -0.10500087 -0.006262909 -0.1882816 0.053200807 0.12394501 0.12859137 0.029872896 0.039132867 0.007632746 0.06342986 -0.08782098 -0.081929795 0.019002268 0.04855588 -0.012631413 0.15218005 0.028149167 0.037774015 0.010473748 -0.028475147 -0.026437389 0.021514274 0.17604962 -0.028892593 -0.1635812 -0.09227161 -0.0690316 0.09541437 0.04647791 -0.04352712 -0.027130242 0.16100682 -0.048328668 0.001273096 0.03266223 0.07369554 -0.019540856 -0.087890044 -0.033917286 -0.10218845 0.0622007 -0.056922156 -0.002586112 -0.049347486 -0.103839494 0.05181572 -0.017583622 -0.039868485 0.115863435 0.075969 -0.028487096 -0.09812321 0.0043947236 0.022617642 0.077120155 -0.10605898 -0.1688465 -0.05985923 -0.14526817 -0.02598329 0.019257883 -0.0056526144 -0.0076396163 -0.069776416 0.02224898 -0.025166716 -0.14168347 0.031648245 0.029274663 -0.15579237 0.030585205 0.051815018 -0.013252562 0.018650891 -0.036051553 0.03441646 0.13005668 -0.06814814 -0.020763788 0.021332106 -0.044506475 0.022333423 0.002619425 -0.07695414 -0.0013261935 -0.020458171 -0.18025258 0.1276181 0.057986278 -0.01445796 -0.03917559 0.009347141 0.09771837 0.08963483 0.04359781 0.20274521 -0.12129274 0.012358629 -0.14161524 -0.02441324 -0.06468104 0.017192796 -0.030087432 -0.16450818 -0.089565046 -0.06272443 -0.013107139 -0.07823867 -0.1611445 0.1321374 -0.12661727 -0.06328068 -0.09770908 -0.11535067 0.17705302 0.08609449 0.07964431 0.052218147 0.22681035 -0.036774427 0.0040766415 0.06650493 -0.09223429 0.10416432 -0.0656563 0.04035351 -0.034895193 -0.15288012 0.044794347 0.055271015 -0.07203989 0.012165253 -0.028901432 -0.11359917 -0.025468653 0.006691083 0.021912789 0.11887183 0.14692913 -0.23594673
to -0.16585623 -0.14116889 -0.0077875117 0.06606688 -0.08731523 0.041895885 0.08081418 -0.09036866 -0.13086742 -0.20216891 0.1344299 0.038060006 0.01814995 -0.28557548 -0.079562575 0.052007105 -0.04256296 -0.13550559 0.031872995 0.01620859 -0.020925196 0.11259842 -0.0722603 0.09634258 0.03289168 0.14143293 0.04931846 -0.029907055 0.1618614 0.024455355 -0.13176017 -0.018641565 -0.09918596 -0.092793286 0.06309778 -0.044627994 -0.027973427 0.19157463 0.09856003 -0.035095405 0.029919509 0.024471398 0.14108118 -0.12965487 -0.046690613 0.055432644 -0.0046832873 -0.05605918 0.04465845 0.15912396 -0.21176754 0.07292623 0.018593075 -0.1251868 -0.06296566 -0.037120078 -0.07702058 -0.014742202 -0.07016683 -0.061264135 0.034547232 -0.009718072 -0.19413966 0.21366048 0.24261771 -0.19964862 -0.02750122 -0.17738344 -0.16967039 -0.21577887 -0.07884767 0.0884458 0.098661646 -0.073821746 -0.2148867 -0.110363 -0.020485083 0.17962141 -0.19776106 -0.12989156 -0.04449915 0.04492861 -0.04956241 0.086992264 -0.092950255 0.071518645 -0.2699568 0.064255476 -0.021027535 -0.10493316 0.3264426 -0.27288252 0.15168017 0.01243365 -0.097866915 -0.0035424212 0.07934623 -0.061646864 0.020137252 0.17947377 0.013205667 -0.029507378 -0.01686943 0.14515874 0.08308349 -0.049595166 0.14666541 0.100754246 0.26028755 0.25066823 -0.22362155 0.116473384 -0.0804817 0.07142254 0.1040995 0.05509124 0.048220355 -0.08021449 -0.053967323 -0.0955583 0.017303571 0.11097813 0.10176202 0.3439214 -0.018904423 -0.10639039 0.07182589 0.027301958 0.028822882 0.12988517 0.04676754 0.04462745 0.0025733637 -0.07650423 0.053027313 -0.0084207235 0.019388495 0.08448243 -0.02465567 0.0068552014 -0.14855362 -0.13598605 -0.11593217 -0.1895942 -0.05203806 0.025893727 -0.006039085 0.27800602 -0.21100031 -0.075022765 0.17662258 -0.073896684 0.14943595 0.03807163 0.017339958 0.036064755 -0.12726241 0.057563223 0.18954287 -0.039334264 -0.14295496 -0.010150869 -0.2554861 0.074319445 0.16889599 0.1761987 0.04219412 0.055058125 0.009767901 0.08695962 -0.11747339 -0.11381095 0.025634233 0.06575281 -0.014306753 0.20716521 0.04088402 0.05011618 0.017176716 -0.036383357 -0.034214653 0.027114587 0.24099894 -0.04249907 -0.22396575 -0.12838897 -0.096327454 0.12936185 0.065111145 -0.059405312 -0.037224177 0.21974786 -0.06628435 -0.00062729756 0.045054283 0.09971951 -0.027947718 -0.11608758 -0.044272363 -0.13968205 0.083282135 -0.077757046 -0.0046545453 -0.06574133 -0.13777213 0.0689311 -0.025934897 -0.05615209 0.1541846 0.105662964 -0.038753863 -0.13467512 0.003378017 0.031181622 0.10783752 -0.14274304 -0.22911559 -0.07891284 -0.19626665 -0.03524295 0.025776781 -0.008041299 -0.013013535 -0.0930477 0.027858656 -0.033536036 -0.19018823 0.042382464 0.037744135 -0.21073534 0.039796125 0.06907764 -0.0146036865 0.025712907 -0.04640151 0.046546467 0.17549124 -0.091124944 -0.028878486 0.0281312 -0.058909707 0.028271614 0.00044917993 -0.10429781 -0.0022435554 -0.027909687 -0.24411051 0.17392318 0.077260695 -0.0172512 -0.04926116 0.012898958 0.13544603 0.123352624 0.05853112 0.2734667 -0.16141523 0.01591906 -0.19197051 -0.03369727 -0.08983632 0.021023396 -0.040449932 -0.22181801 -0.12319302 -0.083183736 -0.01629277 -0.10950919 -0.21935011 0.1788757 -0.17331648 -0.08626867 -0.13570246 -0.15629242 0.24020205 0.11563495 0.10647882 0.07099884 0.3068975 -0.04791087 0.005669502 0.09030416 -0.12209359 0.14369668 -0.089831404 0.05508187 -0.0479502 -0.20754194 0.059684433 0.072976924 -0.09512819 0.016613219 -0.04054347 -0.15254158 -0.03177419 0.005682938 0.03124917 0.16068842 0.19967946 -0.32089737
phai -0.13118559 -0.111543365 -0.0058654463 0.052038204 -0.06823587 0.032471314 0.06452537 -0.070109725 -0.10236434 -0.15986207 0.10625994 0.029231712 0.015995977 -0.22461241 -0.062349737 0.041874055 -0.035131525 -0.10720068 0.02648473 0.013638199 -0.017643703 0.08705393 -0.057133157 0.074663475 0.024783457 0.111862004 0.040002905 -0.02281504 0.12693827 0.018869234 -0.10343948 -0.01459316 -0.07922118 -0.07232319 0.052475497 -0.03834321 -0.022347232 0.15235153 0.07735433 -0.029235838 0.02318802 0.019837614 0.11032576 -0.10383625 -0.037693094 0.04499378 -0.0014984793 -0.045196958 0.036055814 0.12562995 -0.16763362 0.059679437 0.015386791 -0.098487385 -0.050816856 -0.029501772 -0.06357897 -0.012515377 -0.055651393 -0.047407594 0.028307712 -0.005347719 -0.15194975 0.16826828 0.1891742 -0.15946344 -0.021611534 -0.14082049 -0.1317545 -0.16912045 -0.060958277 0.07160274 0.07700423 -0.05611674 -0.16792937 -0.08492496 -0.01642978 0.1420501 -0.1580682 -0.10493399 -0.033740986 0.035075024 -0.037341103 0.068194434 -0.071663976 0.057445236 -0.21273968 0.049217556 -0.016485145 -0.08455427 0.25762963 -0.21299717 0.12005324 0.011001464 -0.07835732 -0.0014030291 0.062911436 -0.05082132 0.014755842 0.14351499 0.009978977 -0.02342213 -0.012221851 0.11369138 0.06677879 -0.037945017 0.11571333 0.07869225 0.20298545 0.19783193 -0.17653553 0.092666626 -0.06321666 0.055894516 0.08182702 0.041849785 0.03771819 -0.060824282 -0.042364124 -0.07490834 0.013493491 0.090185195 0.08210523 0.27289048 -0.01415715 -0.08284318 0.05421349 0.02183674 0.020817837 0.10442966 0.03641262 0.03521777 0.002769448 -0.059029292 0.04194825 -0.0069456636 0.013478617 0.06673901 -0.019290987 0.0068262056 -0.11606811 -0.1079815 -0.09218207 -0.15134804 -0.041639004 0.018302316 -0.005244599 0.21737328 -0.16505058 -0.058268633 0.13869898 -0.05771587 0.11914043 0.028663376 0.011345552 0.026540702 -0.10027129 0.04532705 0.1502333 -0.032502316 -0.11322132 -0.006924632 -0.20256718 0.05758277 0.13148497 0.13718158 0.033902578 0.040620063 0.009832049 0.06743541 -0.09501498 -0.08821292 0.01967154 0.051660318 -0.013149241 0.16261023 0.03007392 0.041143518 0.011762747 -0.028836705 -0.0271116 0.020726433 0.19131641 -0.031969547 -0.17738178 -0.09942428 -0.075182155 0.10141522 0.050294273 -0.04590308 -0.030426228 0.17344005 -0.05468418 -0.00053228054 0.036576703 0.0779533 -0.020351505 -0.09195948 -0.03677261 -0.10900817 0.06388418 -0.061287243 -0.0033804544 -0.05109267 -0.110137105 0.05486657 -0.019361096 -0.0419971 0.121488124 0.08240325 -0.031444695 -0.10610136 0.0028811193 0.024627972 0.08535405 -0.11098506 -0.17794372 -0.06384469 -0.15460022 -0.027598044 0.020111717 -0.0056392592 -0.010615669 -0.073502816 0.023043927 -0.026838602 -0.15085976 0.031250373 0.03199803 -0.16712445 0.031142617 0.054146595 -0.011994166 0.021691509 -0.036878467 0.037393305 0.13844816 -0.070778415 -0.023846941 0.023323625 -0.046663247 0.02207966 0.0025219559 -0.08204548 -0.0023753599 -0.02225637 -0.19392832 0.13767266 0.061168082 -0.013125526 -0.03859374 0.0105528 0.10538185 0.09796924 0.04652711 0.21659598 -0.13005744 0.014315769 -0.15086439 -0.027862059 -0.070765585 0.015096017 -0.03214912 -0.17652361 -0.098208286 -0.066693224 -0.014754291 -0.08582243 -0.17106542 0.14082052 -0.13599883 -0.06821496 -0.10669353 -0.12219243 0.18913302 0.09080288 0.08500953 0.05359022 0.24184188 -0.03671 0.0048935423 0.06954471 -0.096197896 0.11386196 -0.06960015 0.0423539 -0.03687058 -0.16353351 0.04684611 0.05751824 -0.075068265 0.011378493 -0.031364486 -0.1193263 -0.026379805 0.0070864125 0.021743871 0.12680666 0.15788695 -0.2525978
vay -0.1185182 -0.10180986 -0.004480874 0.047070306 -0.06408461 0.029746693 0.057426363 -0.06625564 -0.0968481 -0.14571205 0.09784924 0.028509526 0.014017143 -0.20850645 -0.05598577 0.039190196 -0.03278676 -0.099711664 0.024337227 0.010853058 -0.014384434 0.07993966 -0.052954078 0.068068914 0.023703653 0.10210696 0.035112735 -0.020633386 0.11592011 0.01846765 -0.09812994 -0.013407044 -0.07356299 -0.06688721 0.04647526 -0.03412746 -0.020596152 0.13846937 0.071078576 -0.026593477 0.020982185 0.018147167 0.102681644 -0.09567784 -0.033949405 0.039310016 -0.0015289214 -0.039796386 0.03202784 0.11318173 -0.15300824 0.054328978 0.01516921 -0.09090723 -0.044647288 -0.026274204 -0.058131065 -0.011142994 -0.051425826 -0.044477798 0.025106128 -0.0075877914 -0.14002101 0.15598637 0.175949 -0.1460361 -0.018878434 -0.13033658 -0.12333716 -0.15633996 -0.05498857 0.06333661 0.07315087 -0.051038347 -0.15626004 -0.07920229 -0.01646472 0.13132666 -0.1455355 -0.09504253 -0.03282095 0.03509618 -0.036012746 0.060541585 -0.06644931 0.05100031 -0.19630177 0.046948858 -0.01586893 -0.076930515 0.23777066 -0.19880225 0.110025145 0.008993549 -0.07280451 -0.0019720602 0.056726564 -0.04709892 0.013196109 0.13084514 0.010942942 -0.021497717 -0.009723583 0.104990095 0.059092782 -0.03396804 0.1080908 0.07506557 0.18957126 0.18276921 -0.16406398 0.08256812 -0.05706317 0.053296257 0.07472237 0.039121177 0.03252379 -0.057142906 -0.037428625 -0.07069492 0.0113653755 0.08053201 0.07554629 0.24890897 -0.012993816 -0.07751713 0.05145395 0.018930638 0.02141195 0.093992785 0.03534938 0.031761624 0.0021683408 -0.05402015 0.040446933 -0.005939363 0.013505487 0.058630977 -0.018268049 0.005470207 -0.10768664 -0.10022288 -0.08483016 -0.13880742 -0.03922064 0.016897606 -0.00539368 0.2028537 -0.15332134 -0.055155437 0.12871207 -0.054726362 0.11004855 0.028325355 0.012261059 0.027139895 -0.09436894 0.04068461 0.13977294 -0.02675352 -0.10369637 -0.007065404 -0.18442582 0.052409865 0.1232799 0.12776111 0.029515224 0.03912003 0.007561553 0.06306477 -0.08481503 -0.082017295 0.017338531 0.048910733 -0.0123036485 0.15088555 0.027918575 0.039024647 0.010319832 -0.027608804 -0.025210282 0.019858222 0.17546922 -0.02908151 -0.1625513 -0.09258524 -0.07059993 0.09362509 0.04686746 -0.040954143 -0.025982257 0.15968616 -0.04932 -7.335567e-05 0.03340074 0.07153042 -0.019499155 -0.08651875 -0.033900194 -0.09952612 0.058931265 -0.058394387 -0.0043485803 -0.049660627 -0.10161961 0.051244013 -0.019864207 -0.04011748 0.114672445 0.07728438 -0.027777793 -0.095564894 0.002500691 0.020629663 0.07739916 -0.10440267 -0.16426425 -0.05716552 -0.14262317 -0.023005376 0.018320758 -0.006382901 -0.008824925 -0.067989446 0.020581316 -0.02231211 -0.13947158 0.02939194 0.02873158 -0.15416531 0.02846028 0.05073531 -0.011367036 0.02037883 -0.034081284 0.03412837 0.12762956 -0.06578386 -0.022413736 0.019720273 -0.042394623 0.021159098 0.00016776552 -0.07560707 -0.00021187855 -0.021246156 -0.17582792 0.12463484 0.05613251 -0.013117264 -0.036567725 0.01149811 0.09887353 0.09072931 0.042901527 0.20007728 -0.11756741 0.012307268 -0.13869533 -0.023805283 -0.06483817 0.014104715 -0.031980198 -0.16252218 -0.08851425 -0.059562646 -0.013626031 -0.078234 -0.15868424 0.13113841 -0.12794861 -0.06311801 -0.09665438 -0.11488844 0.17344552 0.0852075 0.07832483 0.050262824 0.22193764 -0.034617648 0.004858094 0.06508417 -0.09080569 0.102205716 -0.06344588 0.03835628 -0.034220137 -0.14953433 0.044425596 0.05459752 -0.06950744 0.012298945 -0.028198602 -0.1097835 -0.023664687 0.006417156 0.020673694 0.11599103 0.14626403 -0.23153506
dau -0.10507553 -0.09022777 -0.0060210912 0.04347019 -0.055178635 0.025576863 0.05188181 -0.057754077 -0.08451321 -0.12701716 0.08549314 0.024727121 0.010680779 -0.18222547 -0.050373666 0.03215421 -0.02813323 -0.08549983 0.021469899 0.012150991 -0.011383527 0.07131955 -0.04543708 0.06120839 0.021101013 0.08955606 0.030769017 -0.018939903 0.10117271 0.016256839 -0.083525866 -0.013476121 -0.06429493 -0.05754299 0.03970118 -0.027955614 -0.018684296 0.12274546 0.060456477 -0.022688463 0.018029897 0.016262293 0.08904456 -0.0822125 -0.028696585 0.03439383 -0.0018807766 -0.03434684 0.02802041 0.09964609 -0.13381536 0.048398335 0.0128361825 -0.08036759 -0.04017375 -0.025071593 -0.049553208 -0.00964819 -0.044177625 -0.040546212 0.021594262 -0.0056947838 -0.12211952 0.13345763 0.15242012 -0.12712546 -0.018399432 -0.11215005 -0.10657897 -0.13623819 -0.047474932 0.056650594 0.062368628 -0.046395168 -0.13657627 -0.069676206 -0.013719634 0.113516286 -0.12540106 -0.08418951 -0.028912507 0.030062843 -0.030399388 0.05552002 -0.058226775 0.046425328 -0.17196676 0.0382958 -0.012459568 -0.06508572 0.20550182 -0.17298743 0.094890304 0.0065613417 -0.061931696 -0.0030553504 0.048412077 -0.040238544 0.0117281135 0.112822324 0.00940555 -0.018802995 -0.008690485 0.09255856 0.053246174 -0.029513082 0.0920376 0.06531273 0.16500932 0.15647806 -0.14109054 0.072073676 -0.05062478 0.045739193 0.06576182 0.033474166 0.028989144 -0.048811845 -0.03356263 -0.061065994 0.010240781 0.06996211 0.06366635 0.21620996 -0.012795409 -0.06611583 0.043620512 0.018518524 0.019154511 0.08201087 0.028652752 0.026436958 0.0029526975 -0.048267204 0.03499603 -0.0067561693 0.011096891 0.052423723 -0.015915612 0.005479192 -0.0928393 -0.087567806 -0.075738706 -0.11994918 -0.03203965 0.016146326 -0.0034617863 0.17690222 -0.13447349 -0.045166276 0.110088006 -0.047356933 0.09660259 0.02286589 0.008843947 0.022631744 -0.08114648 0.03827053 0.12183494 -0.023211936 -0.09187405 -0.0063757156 -0.16098627 0.046586573 0.10513006 0.112901166 0.025797443 0.033855222 0.007998902 0.055835344 -0.073841035 -0.07177996 0.015982794 0.041744493 -0.009103985 0.13140815 0.026984798 0.03303339 0.010402312 -0.023008224 -0.023688259 0.01709205 0.1526771 -0.026591614 -0.14027257 -0.078938454 -0.061764132 0.08137091 0.04176781 -0.03647941 -0.024709396 0.13795461 -0.043408085 0.00015155406 0.029908959 0.0652178 -0.017011693 -0.07383099 -0.028159488 -0.08652013 0.05234594 -0.049494356 -0.0040149046 -0.041095424 -0.087777115 0.04378184 -0.016061071 -0.033126954 0.0976738 0.066358805 -0.025265204 -0.084901236 0.002884004 0.019374153 0.06910142 -0.09160849 -0.144149 -0.051367395 -0.12505537 -0.020309089 0.015487505 -0.0049377047 -0.009468375 -0.059788544 0.016668733 -0.021608025 -0.12086383 0.027041597 0.02629117 -0.13432667 0.027309146 0.04619536 -0.008647958 0.01800534 -0.029589701 0.029336879 0.110330485 -0.05740453 -0.018256394 0.01620167 -0.037774842 0.020008245 0.0014594251 -0.06601794 -0.0019644883 -0.01871722 -0.1530101 0.10898524 0.047534533 -0.012325825 -0.031910814 0.008314866 0.08371482 0.078688085 0.03597802 0.17245986 -0.103044264 0.012388682 -0.11976333 -0.022816792 -0.056183234 0.014582672 -0.026617296 -0.14131127 -0.07769147 -0.053896368 -0.009455674 -0.06768698 -0.13728867 0.11163865 -0.11115716 -0.052407894 -0.08493664 -0.09779601 0.15291634 0.075017415 0.068332866 0.04405363 0.19271015 -0.03148496 0.005637477 0.0553988 -0.07722247 0.0895302 -0.05644988 0.03542552 -0.03016312 -0.12972315 0.03902385 0.04700727 -0.061443336 0.011471654 -0.026474843 -0.09719375 -0.021375617 0.0041160695 0.02016117 0.10126697 0.12505674 -0.20308624
mot -0.12665465 -0.10924524 -0.0037164253 0.050506573 -0.06798711 0.030210584 0.06363977 -0.06884689 -0.10243388 -0.15517096 0.10382217 0.029710183 0.014910961 -0.21994922 -0.060764134 0.040722236 -0.034552753 -0.10407598 0.025195884 0.012610234 -0.016720777 0.08683755 -0.056111053 0.07400975 0.023991926 0.10879466 0.039852396 -0.023757678 0.12447326 0.019983953 -0.10363883 -0.013262098 -0.078250885 -0.069383346 0.050396685 -0.03532336 -0.020862598 0.14832863 0.0738778 -0.026106657 0.021588238 0.019497508 0.10616058 -0.10155698 -0.035250105 0.042513672 -0.0018987071 -0.043471254 0.032715917 0.122736655 -0.1621729 0.05570522 0.0139295515 -0.09718124 -0.04742745 -0.029662022 -0.06115976 -0.012414984 -0.055749487 -0.048073363 0.028378118 -0.004919365 -0.14729495 0.16343358 0.1841371 -0.15411355 -0.019438397 -0.13785101 -0.12938875 -0.16555865 -0.05886551 0.06955623 0.075098075 -0.0555144 -0.16611582 -0.085198 -0.018471267 0.13820146 -0.15182482 -0.10279636 -0.033382576 0.03714076 -0.038734738 0.064802706 -0.07177416 0.056128997 -0.21042667 0.04848455 -0.015625479 -0.080300614 0.25169125 -0.20994128 0.115507856 0.008507522 -0.07709671 -0.001691076 0.061529346 -0.05020942 0.016083065 0.13766728 0.011105795 -0.023965782 -0.011193111 0.11181567 0.06275776 -0.037636895 0.114035554 0.07903336 0.19901307 0.19280048 -0.17301251 0.08949614 -0.06096847 0.05669936 0.07794739 0.041690994 0.037064843 -0.061350644 -0.04108791 -0.075546846 0.014997135 0.08713773 0.07909808 0.2638528 -0.0153487 -0.081175484 0.05358154 0.021386586 0.021243386 0.10033352 0.03513169 0.034446042 0.0029316733 -0.058746047 0.042521764 -0.007376608 0.01291223 0.063914955 -0.020849504 0.0037101926 -0.11390768 -0.104481645 -0.089100584 -0.14737941 -0.042452455 0.01773029 -0.005738278 0.2149252 -0.16212505 -0.055245 0.13447434 -0.056479685 0.11728829 0.030471453 0.013574409 0.027616212 -0.10068358 0.04454551 0.1486766 -0.029710451 -0.11248712 -0.007581212 -0.19574067 0.05695813 0.12970492 0.13553305 0.033372983 0.042118844 0.008532923 0.06502218 -0.09185264 -0.08737483 0.018905446 0.05172512 -0.012725777 0.15775347 0.031527232 0.040946685 0.0131012555 -0.028541237 -0.028139355 0.022714948 0.18592846 -0.03196487 -0.17369893 -0.097855486 -0.072794326 0.09749764 0.048740443 -0.044802412 -0.02813837 0.16860493 -0.053323973 0.0021637564 0.036161426 0.07631079 -0.019872144 -0.09081674 -0.034232516 -0.10811222 0.06266999 -0.058997463 -0.002245228 -0.05312853 -0.10776242 0.051488206 -0.019855725 -0.044008397 0.12044705 0.080511354 -0.031087825 -0.10223852 0.0026969507 0.022298763 0.083043024 -0.11020425 -0.17440912 -0.06280611 -0.15158147 -0.02503772 0.019851914 -0.0067061232 -0.008582263 -0.07285071 0.02065887 -0.023909356 -0.14646657 0.030666588 0.030538816 -0.16295344 0.03198328 0.055207364 -0.01272784 0.021416822 -0.035589617 0.03481271 0.13602297 -0.07087582 -0.021601476 0.020448335 -0.045456417 0.021689491 -0.00064271904 -0.07919277 -0.0022095628 -0.02133184 -0.18845437 0.13389747 0.05783618 -0.015078801 -0.040165376 0.0111404285 0.1028834 0.096579924 0.046393678 0.21148865 -0.12667833 0.011766114 -0.14754175 -0.027011717 -0.06916488 0.016951323 -0.033307295 -0.17260621 -0.094143994 -0.06547831 -0.014110904 -0.08456744 -0.1696323 0.13608481 -0.13559969 -0.06428575 -0.10378951 -0.11941867 0.18526377 0.09029456 0.08144879 0.055133846 0.23732719 -0.03599071 0.004562425 0.06780296 -0.095486075 0.109431066 -0.068508804 0.041405078 -0.037121277 -0.15870543 0.044726923 0.0554187 -0.07301797 0.011329498 -0.03128652 -0.11626963 -0.026126832 0.003757203 0.022106616 0.12414217 0.15494485 -0.24823412
se -0.114592336 -0.100035414 -0.0033246472 0.04795155 -0.06327873 0.028586134 0.058391295 -0.061371494 -0.09352063 -0.1425518 0.093239345 0.026574602 0.012130816 -0.20208943 -0.056283824 0.03524047 -0.031254318 -0.0968031 0.021386938 0.012985852 -0.015265477 0.07892842 -0.05029597 0.065639354 0.023355778 0.09833681 0.03469239 -0.02045198 0.11176913 0.018715449 -0.093596876 -0.012851799 -0.069300145 -0.06549986 0.046001554 -0.03394228 -0.020302054 0.13438022 0.067565925 -0.02316307 0.019801602 0.015399679 0.09910477 -0.09113587 -0.031174446 0.039068855 -0.0009196536 -0.041142896 0.030567106 0.11025373 -0.14847033 0.052655257 0.012740101 -0.086978264 -0.04377292 -0.027112313 -0.053871993 -0.009964782 -0.050008684 -0.04297672 0.025402281 -0.0054712063 -0.13505231 0.15012018 0.1685771 -0.14342818 -0.01771449 -0.12642135 -0.11976156 -0.15284713 -0.055054538 0.06365675 0.069958 -0.052257173 -0.15123124 -0.0763511 -0.016078526 0.12590955 -0.13839379 -0.09340857 -0.031645812 0.03336803 -0.034979615 0.05966434 -0.06659206 0.049776312 -0.18918529 0.043558285 -0.014605094 -0.07317142 0.22916801 -0.19008894 0.108184546 0.0071456847 -0.06893497 -0.0011667091 0.055917338 -0.04563651 0.013866519 0.12814468 0.010798615 -0.022254312 -0.012492127 0.10150699 0.060446516 -0.034404505 0.102824695 0.07087414 0.18274154 0.17670971 -0.15585443 0.08060711 -0.056812827 0.049567636 0.072452 0.039076548 0.033101317 -0.05438712 -0.0362932 -0.066194594 0.012971125 0.08077597 0.07193416 0.24248585 -0.013225104 -0.07354013 0.05112107 0.021238731 0.018182278 0.09313615 0.03237452 0.029151497 0.0037320824 -0.053039398 0.03825973 -0.0050791292 0.012234123 0.05715116 -0.017856529 0.0032106512 -0.104009725 -0.09691915 -0.08248844 -0.1348425 -0.038774926 0.018188113 -0.004971996 0.19657892 -0.14927138 -0.053399056 0.12202465 -0.052838366 0.10488404 0.024991004 0.010886373 0.026456932 -0.0908245 0.0403643 0.13607596 -0.02720178 -0.1016975 -0.00895222 -0.18059127 0.051164243 0.11789212 0.12271072 0.028826905 0.037729446 0.006299133 0.061988793 -0.08469358 -0.08023639 0.0183536 0.045910273 -0.010990121 0.14457603 0.02791102 0.03703138 0.012030406 -0.02722851 -0.023940645 0.019700695 0.16816269 -0.02821978 -0.15903074 -0.08920184 -0.068574265 0.08878884 0.04501355 -0.04082676 -0.024983097 0.15285246 -0.046282455 0.0015525719 0.033079803 0.07245563 -0.01726051 -0.08399222 -0.031541515 -0.098986834 0.05673574 -0.055537205 -0.0034951612 -0.048368122 -0.09960776 0.04726422 -0.017753417 -0.040141348 0.1087435 0.0749844 -0.026158728 -0.09387023 0.004742121 0.021440733 0.07490839 -0.098545276 -0.16048293 -0.055538647 -0.13981606 -0.02385177 0.017308941 -0.00502937 -0.008489342 -0.065438434 0.020290677 -0.021726884 -0.13465732 0.027506012 0.029431455 -0.14863257 0.029141726 0.049499713 -0.010410138 0.020590656 -0.031706225 0.0316151 0.12472746 -0.063783646 -0.021715065 0.017927004 -0.0425922 0.020339113 0.0020900997 -0.07406505 -0.0021197738 -0.020470832 -0.17163385 0.12185302 0.05464853 -0.011490904 -0.03513113 0.010843187 0.093924634 0.088083416 0.041162178 0.19326107 -0.11552918 0.011871217 -0.13517246 -0.02343001 -0.06337029 0.015449299 -0.030398339 -0.15592508 -0.0868698 -0.058285266 -0.011641034 -0.077636436 -0.15557012 0.1269936 -0.1224569 -0.06075531 -0.09539017 -0.11025411 0.16833967 0.08242925 0.07689101 0.04833599 0.21542904 -0.03398824 0.004656508 0.06311248 -0.087529264 0.09874926 -0.061919536 0.037531976 -0.034162465 -0.14557733 0.0416911 0.051234007 -0.06900154 0.009889205 -0.028890207 -0.10768519 -0.021399572 0.0063259597 0.019479198 0.11357092 0.14253992 -0.22492309
